digraph Tree {
node [shape=box, style="rounded", color="black", fontname="helvetica"] ;
edge [fontname="helvetica"] ;
0 [label="DepDelay <= 0.8\nsquared_error = 1.0\nsamples = 8209\nvalue = -0.0"] ;
1 [label="DepDelay <= -0.2\nsquared_error = 0.2\nsamples = 7059\nvalue = -0.3"] ;
0 -> 1 [labeldistance=2.5, labelangle=45, headlabel="True"] ;
2 [label="TaxiOut <= 1.2\nsquared_error = 0.1\nsamples = 5105\nvalue = -0.5"] ;
1 -> 2 ;
3 [label="DepDelay <= -0.5\nsquared_error = 0.1\nsamples = 4819\nvalue = -0.6"] ;
2 -> 3 ;
4 [label="TaxiOut <= 0.0\nsquared_error = 0.1\nsamples = 3281\nvalue = -0.6"] ;
3 -> 4 ;
5 [label="TaxiIn <= 10.9\nsquared_error = 0.0\nsamples = 2472\nvalue = -0.7"] ;
4 -> 5 ;
6 [label="DepDelay <= -0.6\nsquared_error = 0.0\nsamples = 2469\nvalue = -0.7"] ;
5 -> 6 ;
7 [label="TaxiIn <= 1.1\nsquared_error = 0.0\nsamples = 1377\nvalue = -0.7"] ;
6 -> 7 ;
8 [label="Distance <= 1.1\nsquared_error = 0.0\nsamples = 1285\nvalue = -0.7"] ;
7 -> 8 ;
9 [label="ActualElapsedTime <= 1.2\nsquared_error = 0.0\nsamples = 1101\nvalue = -0.7"] ;
8 -> 9 ;
10 [label="TaxiOut <= -0.5\nsquared_error = 0.0\nsamples = 1096\nvalue = -0.7"] ;
9 -> 10 ;
11 [label="DepDelay <= -0.7\nsquared_error = 0.0\nsamples = 464\nvalue = -0.8"] ;
10 -> 11 ;
12 [label="CRSElapsedTime <= -1.0\nsquared_error = 0.0\nsamples = 338\nvalue = -0.8"] ;
11 -> 12 ;
13 [label="ActualElapsedTime <= -1.0\nsquared_error = 0.0\nsamples = 60\nvalue = -0.7"] ;
12 -> 13 ;
14 [label="CRSElapsedTime <= -1.2\nsquared_error = 0.0\nsamples = 55\nvalue = -0.7"] ;
13 -> 14 ;
15 [label="ActualElapsedTime <= -1.1\nsquared_error = 0.0\nsamples = 29\nvalue = -0.7"] ;
14 -> 15 ;
16 [label="CRSElapsedTime <= -1.3\nsquared_error = 0.0\nsamples = 27\nvalue = -0.7"] ;
15 -> 16 ;
17 [label="AirTime <= -1.3\nsquared_error = 0.0\nsamples = 12\nvalue = -0.7"] ;
16 -> 17 ;
18 [label="UniqueCarrier_HA <= 0.5\nsquared_error = 0.0\nsamples = 5\nvalue = -0.7"] ;
17 -> 18 ;
19 [label="DepDelay <= -0.7\nsquared_error = 0.0\nsamples = 2\nvalue = -0.8"] ;
18 -> 19 ;
20 [label="squared_error = 0.0\nsamples = 1\nvalue = -0.8"] ;
19 -> 20 ;
21 [label="squared_error = 0.0\nsamples = 1\nvalue = -0.7"] ;
19 -> 21 ;
22 [label="squared_error = -0.0\nsamples = 3\nvalue = -0.7"] ;
18 -> 22 ;
23 [label="CRSElapsedTime <= -1.4\nsquared_error = 0.0\nsamples = 7\nvalue = -0.6"] ;
17 -> 23 ;
24 [label="TaxiIn <= -0.3\nsquared_error = 0.0\nsamples = 3\nvalue = -0.6"] ;
23 -> 24 ;
25 [label="squared_error = 0.0\nsamples = 1\nvalue = -0.6"] ;
24 -> 25 ;
26 [label="ActualElapsedTime <= -1.3\nsquared_error = 0.0\nsamples = 2\nvalue = -0.6"] ;
24 -> 26 ;
27 [label="squared_error = 0.0\nsamples = 1\nvalue = -0.6"] ;
26 -> 27 ;
28 [label="squared_error = -0.0\nsamples = 1\nvalue = -0.6"] ;
26 -> 28 ;
29 [label="AirTime <= -1.1\nsquared_error = 0.0\nsamples = 4\nvalue = -0.6"] ;
23 -> 29 ;
30 [label="CRSElapsedTime <= -1.3\nsquared_error = 0.0\nsamples = 3\nvalue = -0.6"] ;
29 -> 30 ;
31 [label="squared_error = 0.0\nsamples = 1\nvalue = -0.6"] ;
30 -> 31 ;
32 [label="DepDelay <= -0.7\nsquared_error = 0.0\nsamples = 2\nvalue = -0.7"] ;
30 -> 32 ;
33 [label="squared_error = 0.0\nsamples = 1\nvalue = -0.6"] ;
32 -> 33 ;
34 [label="squared_error = -0.0\nsamples = 1\nvalue = -0.7"] ;
32 -> 34 ;
35 [label="squared_error = 0.0\nsamples = 1\nvalue = -0.6"] ;
29 -> 35 ;
36 [label="ActualElapsedTime <= -1.2\nsquared_error = 0.0\nsamples = 15\nvalue = -0.7"] ;
16 -> 36 ;
37 [label="DayOfWeek <= 3.5\nsquared_error = 0.0\nsamples = 6\nvalue = -0.8"] ;
36 -> 37 ;
38 [label="CRSArrTime <= 1.0\nsquared_error = 0.0\nsamples = 3\nvalue = -0.8"] ;
37 -> 38 ;
39 [label="DepTime <= 0.2\nsquared_error = 0.0\nsamples = 2\nvalue = -0.8"] ;
38 -> 39 ;
40 [label="squared_error = 0.0\nsamples = 1\nvalue = -0.8"] ;
39 -> 40 ;
41 [label="squared_error = 0.0\nsamples = 1\nvalue = -0.8"] ;
39 -> 41 ;
42 [label="squared_error = 0.0\nsamples = 1\nvalue = -0.7"] ;
38 -> 42 ;
43 [label="AirTime <= -1.2\nsquared_error = 0.0\nsamples = 3\nvalue = -0.7"] ;
37 -> 43 ;
44 [label="squared_error = 0.0\nsamples = 1\nvalue = -0.7"] ;
43 -> 44 ;
45 [label="squared_error = 0.0\nsamples = 2\nvalue = -0.7"] ;
43 -> 45 ;
46 [label="TaxiOut <= -0.8\nsquared_error = 0.0\nsamples = 9\nvalue = -0.7"] ;
36 -> 46 ;
47 [label="DepDelay <= -0.7\nsquared_error = 0.0\nsamples = 6\nvalue = -0.7"] ;
46 -> 47 ;
48 [label="CRSArrTime <= -0.1\nsquared_error = 0.0\nsamples = 3\nvalue = -0.7"] ;
47 -> 48 ;
49 [label="squared_error = 0.0\nsamples = 1\nvalue = -0.7"] ;
48 -> 49 ;
50 [label="DepTime <= 0.2\nsquared_error = 0.0\nsamples = 2\nvalue = -0.8"] ;
48 -> 50 ;
51 [label="squared_error = 0.0\nsamples = 1\nvalue = -0.8"] ;
50 -> 51 ;
52 [label="squared_error = 0.0\nsamples = 1\nvalue = -0.7"] ;
50 -> 52 ;
53 [label="TaxiIn <= -0.2\nsquared_error = 0.0\nsamples = 3\nvalue = -0.7"] ;
47 -> 53 ;
54 [label="squared_error = 0.0\nsamples = 2\nvalue = -0.7"] ;
53 -> 54 ;
55 [label="squared_error = -0.0\nsamples = 1\nvalue = -0.7"] ;
53 -> 55 ;
56 [label="TaxiIn <= -0.8\nsquared_error = 0.0\nsamples = 3\nvalue = -0.7"] ;
46 -> 56 ;
57 [label="squared_error = 0.0\nsamples = 1\nvalue = -0.7"] ;
56 -> 57 ;
58 [label="UniqueCarrier_OO <= 0.5\nsquared_error = 0.0\nsamples = 2\nvalue = -0.7"] ;
56 -> 58 ;
59 [label="squared_error = 0.0\nsamples = 1\nvalue = -0.7"] ;
58 -> 59 ;
60 [label="squared_error = 0.0\nsamples = 1\nvalue = -0.6"] ;
58 -> 60 ;
61 [label="AirTime <= -1.0\nsquared_error = 0.0\nsamples = 2\nvalue = -0.6"] ;
15 -> 61 ;
62 [label="squared_error = 0.0\nsamples = 1\nvalue = -0.6"] ;
61 -> 62 ;
63 [label="squared_error = 0.0\nsamples = 1\nvalue = -0.6"] ;
61 -> 63 ;
64 [label="AirTime <= -1.0\nsquared_error = 0.0\nsamples = 26\nvalue = -0.8"] ;
14 -> 64 ;
65 [label="ActualElapsedTime <= -1.2\nsquared_error = 0.0\nsamples = 12\nvalue = -0.8"] ;
64 -> 65 ;
66 [label="squared_error = -0.0\nsamples = 3\nvalue = -0.9"] ;
65 -> 66 ;
67 [label="AirTime <= -1.1\nsquared_error = 0.0\nsamples = 9\nvalue = -0.8"] ;
65 -> 67 ;
68 [label="ActualElapsedTime <= -1.2\nsquared_error = 0.0\nsamples = 5\nvalue = -0.8"] ;
67 -> 68 ;
69 [label="UniqueCarrier_MQ <= 0.5\nsquared_error = 0.0\nsamples = 3\nvalue = -0.8"] ;
68 -> 69 ;
70 [label="squared_error = 0.0\nsamples = 2\nvalue = -0.8"] ;
69 -> 70 ;
71 [label="squared_error = 0.0\nsamples = 1\nvalue = -0.8"] ;
69 -> 71 ;
72 [label="UniqueCarrier_YV <= 0.5\nsquared_error = 0.0\nsamples = 2\nvalue = -0.8"] ;
68 -> 72 ;
73 [label="squared_error = 0.0\nsamples = 1\nvalue = -0.8"] ;
72 -> 73 ;
74 [label="squared_error = 0.0\nsamples = 1\nvalue = -0.7"] ;
72 -> 74 ;
75 [label="CRSDepTime <= -1.3\nsquared_error = 0.0\nsamples = 4\nvalue = -0.8"] ;
67 -> 75 ;
76 [label="squared_error = 0.0\nsamples = 1\nvalue = -0.8"] ;
75 -> 76 ;
77 [label="AirTime <= -1.1\nsquared_error = 0.0\nsamples = 3\nvalue = -0.9"] ;
75 -> 77 ;
78 [label="squared_error = 0.0\nsamples = 1\nvalue = -0.9"] ;
77 -> 78 ;
79 [label="squared_error = 0.0\nsamples = 2\nvalue = -0.8"] ;
77 -> 79 ;
80 [label="ActualElapsedTime <= -1.1\nsquared_error = 0.0\nsamples = 14\nvalue = -0.7"] ;
64 -> 80 ;
81 [label="DepDelay <= -0.7\nsquared_error = 0.0\nsamples = 8\nvalue = -0.7"] ;
80 -> 81 ;
82 [label="squared_error = 0.0\nsamples = 1\nvalue = -0.8"] ;
81 -> 82 ;
83 [label="TaxiOut <= -0.8\nsquared_error = 0.0\nsamples = 7\nvalue = -0.7"] ;
81 -> 83 ;
84 [label="TaxiIn <= -0.7\nsquared_error = 0.0\nsamples = 4\nvalue = -0.7"] ;
83 -> 84 ;
85 [label="squared_error = 0.0\nsamples = 1\nvalue = -0.7"] ;
84 -> 85 ;
86 [label="AirTime <= -1.0\nsquared_error = 0.0\nsamples = 3\nvalue = -0.7"] ;
84 -> 86 ;
87 [label="squared_error = 0.0\nsamples = 1\nvalue = -0.8"] ;
86 -> 87 ;
88 [label="squared_error = 0.0\nsamples = 2\nvalue = -0.7"] ;
86 -> 88 ;
89 [label="ArrTime <= -0.2\nsquared_error = 0.0\nsamples = 3\nvalue = -0.7"] ;
83 -> 89 ;
90 [label="squared_error = 0.0\nsamples = 1\nvalue = -0.7"] ;
89 -> 90 ;
91 [label="squared_error = -0.0\nsamples = 2\nvalue = -0.7"] ;
89 -> 91 ;
92 [label="DepDelay <= -0.7\nsquared_error = 0.0\nsamples = 6\nvalue = -0.7"] ;
80 -> 92 ;
93 [label="squared_error = 0.0\nsamples = 4\nvalue = -0.7"] ;
92 -> 93 ;
94 [label="squared_error = 0.0\nsamples = 2\nvalue = -0.6"] ;
92 -> 94 ;
95 [label="Distance <= -1.0\nsquared_error = 0.0\nsamples = 5\nvalue = -0.6"] ;
13 -> 95 ;
96 [label="TaxiOut <= -0.7\nsquared_error = 0.0\nsamples = 3\nvalue = -0.5"] ;
95 -> 96 ;
97 [label="squared_error = 0.0\nsamples = 1\nvalue = -0.6"] ;
96 -> 97 ;
98 [label="CRSDepTime <= 0.5\nsquared_error = 0.0\nsamples = 2\nvalue = -0.5"] ;
96 -> 98 ;
99 [label="squared_error = 0.0\nsamples = 1\nvalue = -0.5"] ;
98 -> 99 ;
100 [label="squared_error = -0.0\nsamples = 1\nvalue = -0.5"] ;
98 -> 100 ;
101 [label="DayOfWeek <= 3.5\nsquared_error = 0.0\nsamples = 2\nvalue = -0.6"] ;
95 -> 101 ;
102 [label="squared_error = 0.0\nsamples = 1\nvalue = -0.6"] ;
101 -> 102 ;
103 [label="squared_error = 0.0\nsamples = 1\nvalue = -0.6"] ;
101 -> 103 ;
104 [label="CRSElapsedTime <= 0.1\nsquared_error = 0.0\nsamples = 278\nvalue = -0.8"] ;
12 -> 104 ;
105 [label="ActualElapsedTime <= 0.1\nsquared_error = 0.0\nsamples = 234\nvalue = -0.8"] ;
104 -> 105 ;
106 [label="ActualElapsedTime <= -0.9\nsquared_error = 0.0\nsamples = 229\nvalue = -0.8"] ;
105 -> 106 ;
107 [label="CRSElapsedTime <= -0.8\nsquared_error = 0.0\nsamples = 41\nvalue = -0.9"] ;
106 -> 107 ;
108 [label="CRSElapsedTime <= -0.9\nsquared_error = 0.0\nsamples = 37\nvalue = -0.8"] ;
107 -> 108 ;
109 [label="ActualElapsedTime <= -1.0\nsquared_error = 0.0\nsamples = 20\nvalue = -0.8"] ;
108 -> 109 ;
110 [label="ActualElapsedTime <= -1.2\nsquared_error = 0.0\nsamples = 10\nvalue = -0.8"] ;
109 -> 110 ;
111 [label="squared_error = 0.0\nsamples = 1\nvalue = -1.0"] ;
110 -> 111 ;
112 [label="ActualElapsedTime <= -1.1\nsquared_error = 0.0\nsamples = 9\nvalue = -0.8"] ;
110 -> 112 ;
113 [label="CRSElapsedTime <= -1.0\nsquared_error = 0.0\nsamples = 3\nvalue = -0.9"] ;
112 -> 113 ;
114 [label="squared_error = -0.0\nsamples = 2\nvalue = -0.9"] ;
113 -> 114 ;
115 [label="squared_error = 0.0\nsamples = 1\nvalue = -0.9"] ;
113 -> 115 ;
116 [label="Distance <= -0.9\nsquared_error = 0.0\nsamples = 6\nvalue = -0.8"] ;
112 -> 116 ;
117 [label="squared_error = 0.0\nsamples = 3\nvalue = -0.8"] ;
116 -> 117 ;
118 [label="AirTime <= -0.9\nsquared_error = 0.0\nsamples = 3\nvalue = -0.8"] ;
116 -> 118 ;
119 [label="squared_error = 0.0\nsamples = 1\nvalue = -0.8"] ;
118 -> 119 ;
120 [label="squared_error = -0.0\nsamples = 2\nvalue = -0.8"] ;
118 -> 120 ;
121 [label="UniqueCarrier_WN <= 0.5\nsquared_error = 0.0\nsamples = 10\nvalue = -0.7"] ;
109 -> 121 ;
122 [label="CRSDepTime <= -0.4\nsquared_error = 0.0\nsamples = 2\nvalue = -0.7"] ;
121 -> 122 ;
123 [label="squared_error = 0.0\nsamples = 1\nvalue = -0.7"] ;
122 -> 123 ;
124 [label="squared_error = 0.0\nsamples = 1\nvalue = -0.7"] ;
122 -> 124 ;
125 [label="CRSDepTime <= -1.5\nsquared_error = 0.0\nsamples = 8\nvalue = -0.8"] ;
121 -> 125 ;
126 [label="squared_error = 0.0\nsamples = 1\nvalue = -0.7"] ;
125 -> 126 ;
127 [label="TaxiIn <= -0.8\nsquared_error = 0.0\nsamples = 7\nvalue = -0.8"] ;
125 -> 127 ;
128 [label="ArrTime <= -0.7\nsquared_error = 0.0\nsamples = 3\nvalue = -0.8"] ;
127 -> 128 ;
129 [label="squared_error = 0.0\nsamples = 1\nvalue = -0.8"] ;
128 -> 129 ;
130 [label="squared_error = -0.0\nsamples = 2\nvalue = -0.8"] ;
128 -> 130 ;
131 [label="DepDelay <= -0.7\nsquared_error = 0.0\nsamples = 4\nvalue = -0.8"] ;
127 -> 131 ;
132 [label="squared_error = -0.0\nsamples = 3\nvalue = -0.8"] ;
131 -> 132 ;
133 [label="squared_error = 0.0\nsamples = 1\nvalue = -0.7"] ;
131 -> 133 ;
134 [label="AirTime <= -0.9\nsquared_error = 0.0\nsamples = 17\nvalue = -0.9"] ;
108 -> 134 ;
135 [label="CRSDepTime <= 1.2\nsquared_error = 0.0\nsamples = 11\nvalue = -0.9"] ;
134 -> 135 ;
136 [label="ActualElapsedTime <= -1.0\nsquared_error = 0.0\nsamples = 10\nvalue = -0.9"] ;
135 -> 136 ;
137 [label="AirTime <= -0.9\nsquared_error = 0.0\nsamples = 4\nvalue = -0.9"] ;
136 -> 137 ;
138 [label="TaxiIn <= -0.7\nsquared_error = 0.0\nsamples = 3\nvalue = -0.9"] ;
137 -> 138 ;
139 [label="squared_error = 0.0\nsamples = 1\nvalue = -0.9"] ;
138 -> 139 ;
140 [label="squared_error = -0.0\nsamples = 2\nvalue = -0.9"] ;
138 -> 140 ;
141 [label="squared_error = 0.0\nsamples = 1\nvalue = -0.9"] ;
137 -> 141 ;
142 [label="Distance <= -0.8\nsquared_error = 0.0\nsamples = 6\nvalue = -0.9"] ;
136 -> 142 ;
143 [label="DayOfWeek <= 1.5\nsquared_error = 0.0\nsamples = 5\nvalue = -0.9"] ;
142 -> 143 ;
144 [label="squared_error = -0.0\nsamples = 2\nvalue = -0.9"] ;
143 -> 144 ;
145 [label="squared_error = 0.0\nsamples = 3\nvalue = -0.9"] ;
143 -> 145 ;
146 [label="squared_error = -0.0\nsamples = 1\nvalue = -0.9"] ;
142 -> 146 ;
147 [label="squared_error = 0.0\nsamples = 1\nvalue = -0.8"] ;
135 -> 147 ;
148 [label="CRSDepTime <= -0.2\nsquared_error = 0.0\nsamples = 6\nvalue = -0.8"] ;
134 -> 148 ;
149 [label="AirTime <= -0.8\nsquared_error = 0.0\nsamples = 2\nvalue = -0.8"] ;
148 -> 149 ;
150 [label="squared_error = 0.0\nsamples = 1\nvalue = -0.8"] ;
149 -> 150 ;
151 [label="squared_error = -0.0\nsamples = 1\nvalue = -0.7"] ;
149 -> 151 ;
152 [label="Distance <= -0.9\nsquared_error = 0.0\nsamples = 4\nvalue = -0.8"] ;
148 -> 152 ;
153 [label="squared_error = 0.0\nsamples = 1\nvalue = -0.8"] ;
152 -> 153 ;
154 [label="CRSDepTime <= 0.9\nsquared_error = 0.0\nsamples = 3\nvalue = -0.9"] ;
152 -> 154 ;
155 [label="CRSElapsedTime <= -0.9\nsquared_error = 0.0\nsamples = 2\nvalue = -0.9"] ;
154 -> 155 ;
156 [label="squared_error = 0.0\nsamples = 1\nvalue = -0.9"] ;
155 -> 156 ;
157 [label="squared_error = 0.0\nsamples = 1\nvalue = -0.9"] ;
155 -> 157 ;
158 [label="squared_error = 0.0\nsamples = 1\nvalue = -0.8"] ;
154 -> 158 ;
159 [label="DepTime <= 0.3\nsquared_error = 0.0\nsamples = 4\nvalue = -1.0"] ;
107 -> 159 ;
160 [label="ArrTime <= 0.2\nsquared_error = 0.0\nsamples = 2\nvalue = -1.0"] ;
159 -> 160 ;
161 [label="squared_error = 0.0\nsamples = 1\nvalue = -1.0"] ;
160 -> 161 ;
162 [label="squared_error = -0.0\nsamples = 1\nvalue = -1.0"] ;
160 -> 162 ;
163 [label="CRSElapsedTime <= -0.6\nsquared_error = 0.0\nsamples = 2\nvalue = -1.2"] ;
159 -> 163 ;
164 [label="squared_error = 0.0\nsamples = 1\nvalue = -1.1"] ;
163 -> 164 ;
165 [label="squared_error = 0.0\nsamples = 1\nvalue = -1.3"] ;
163 -> 165 ;
166 [label="CRSElapsedTime <= -0.7\nsquared_error = 0.0\nsamples = 188\nvalue = -0.8"] ;
106 -> 166 ;
167 [label="ActualElapsedTime <= -0.8\nsquared_error = 0.0\nsamples = 40\nvalue = -0.7"] ;
166 -> 167 ;
168 [label="CRSElapsedTime <= -0.8\nsquared_error = 0.0\nsamples = 22\nvalue = -0.8"] ;
167 -> 168 ;
169 [label="CRSElapsedTime <= -0.9\nsquared_error = 0.0\nsamples = 7\nvalue = -0.7"] ;
168 -> 169 ;
170 [label="CRSDepTime <= -1.0\nsquared_error = 0.0\nsamples = 2\nvalue = -0.6"] ;
169 -> 170 ;
171 [label="squared_error = 0.0\nsamples = 1\nvalue = -0.6"] ;
170 -> 171 ;
172 [label="squared_error = 0.0\nsamples = 1\nvalue = -0.6"] ;
170 -> 172 ;
173 [label="DepDelay <= -0.7\nsquared_error = 0.0\nsamples = 5\nvalue = -0.7"] ;
169 -> 173 ;
174 [label="CRSDepTime <= 0.4\nsquared_error = 0.0\nsamples = 3\nvalue = -0.7"] ;
173 -> 174 ;
175 [label="ActualElapsedTime <= -0.9\nsquared_error = 0.0\nsamples = 2\nvalue = -0.7"] ;
174 -> 175 ;
176 [label="squared_error = 0.0\nsamples = 1\nvalue = -0.7"] ;
175 -> 176 ;
177 [label="squared_error = 0.0\nsamples = 1\nvalue = -0.7"] ;
175 -> 177 ;
178 [label="squared_error = -0.0\nsamples = 1\nvalue = -0.7"] ;
174 -> 178 ;
179 [label="TaxiOut <= -0.7\nsquared_error = 0.0\nsamples = 2\nvalue = -0.7"] ;
173 -> 179 ;
180 [label="squared_error = 0.0\nsamples = 1\nvalue = -0.6"] ;
179 -> 180 ;
181 [label="squared_error = -0.0\nsamples = 1\nvalue = -0.7"] ;
179 -> 181 ;
182 [label="ActualElapsedTime <= -0.9\nsquared_error = 0.0\nsamples = 15\nvalue = -0.8"] ;
168 -> 182 ;
183 [label="TaxiIn <= -0.4\nsquared_error = 0.0\nsamples = 2\nvalue = -0.9"] ;
182 -> 183 ;
184 [label="squared_error = 0.0\nsamples = 1\nvalue = -0.9"] ;
183 -> 184 ;
185 [label="squared_error = 0.0\nsamples = 1\nvalue = -0.9"] ;
183 -> 185 ;
186 [label="CRSElapsedTime <= -0.8\nsquared_error = 0.0\nsamples = 13\nvalue = -0.8"] ;
182 -> 186 ;
187 [label="ActualElapsedTime <= -0.9\nsquared_error = 0.0\nsamples = 5\nvalue = -0.8"] ;
186 -> 187 ;
188 [label="ActualElapsedTime <= -0.9\nsquared_error = 0.0\nsamples = 3\nvalue = -0.8"] ;
187 -> 188 ;
189 [label="squared_error = 0.0\nsamples = 1\nvalue = -0.8"] ;
188 -> 189 ;
190 [label="squared_error = -0.0\nsamples = 2\nvalue = -0.8"] ;
188 -> 190 ;
191 [label="CRSArrTime <= -1.3\nsquared_error = 0.0\nsamples = 2\nvalue = -0.7"] ;
187 -> 191 ;
192 [label="squared_error = 0.0\nsamples = 1\nvalue = -0.7"] ;
191 -> 192 ;
193 [label="squared_error = 0.0\nsamples = 1\nvalue = -0.7"] ;
191 -> 193 ;
194 [label="DepDelay <= -0.7\nsquared_error = 0.0\nsamples = 8\nvalue = -0.8"] ;
186 -> 194 ;
195 [label="AirTime <= -0.7\nsquared_error = 0.0\nsamples = 2\nvalue = -0.8"] ;
194 -> 195 ;
196 [label="squared_error = 0.0\nsamples = 1\nvalue = -0.9"] ;
195 -> 196 ;
197 [label="squared_error = -0.0\nsamples = 1\nvalue = -0.8"] ;
195 -> 197 ;
198 [label="TaxiIn <= -0.7\nsquared_error = 0.0\nsamples = 6\nvalue = -0.8"] ;
194 -> 198 ;
199 [label="squared_error = 0.0\nsamples = 2\nvalue = -0.8"] ;
198 -> 199 ;
200 [label="Distance <= -0.7\nsquared_error = 0.0\nsamples = 4\nvalue = -0.8"] ;
198 -> 200 ;
201 [label="squared_error = 0.0\nsamples = 2\nvalue = -0.8"] ;
200 -> 201 ;
202 [label="squared_error = -0.0\nsamples = 2\nvalue = -0.8"] ;
200 -> 202 ;
203 [label="AirTime <= -0.5\nsquared_error = 0.0\nsamples = 18\nvalue = -0.7"] ;
167 -> 203 ;
204 [label="CRSElapsedTime <= -0.8\nsquared_error = 0.0\nsamples = 17\nvalue = -0.7"] ;
203 -> 204 ;
205 [label="AirTime <= -0.7\nsquared_error = 0.0\nsamples = 6\nvalue = -0.6"] ;
204 -> 205 ;
206 [label="DepDelay <= -0.7\nsquared_error = 0.0\nsamples = 2\nvalue = -0.6"] ;
205 -> 206 ;
207 [label="squared_error = 0.0\nsamples = 1\nvalue = -0.7"] ;
206 -> 207 ;
208 [label="squared_error = 0.0\nsamples = 1\nvalue = -0.6"] ;
206 -> 208 ;
209 [label="DepTime <= 0.5\nsquared_error = 0.0\nsamples = 4\nvalue = -0.6"] ;
205 -> 209 ;
210 [label="squared_error = 0.0\nsamples = 3\nvalue = -0.6"] ;
209 -> 210 ;
211 [label="squared_error = -0.0\nsamples = 1\nvalue = -0.6"] ;
209 -> 211 ;
212 [label="Distance <= -0.8\nsquared_error = 0.0\nsamples = 11\nvalue = -0.7"] ;
204 -> 212 ;
213 [label="DayOfWeek <= 2.0\nsquared_error = 0.0\nsamples = 2\nvalue = -0.6"] ;
212 -> 213 ;
214 [label="squared_error = 0.0\nsamples = 1\nvalue = -0.6"] ;
213 -> 214 ;
215 [label="squared_error = 0.0\nsamples = 1\nvalue = -0.6"] ;
213 -> 215 ;
216 [label="DayOfWeek <= 1.5\nsquared_error = 0.0\nsamples = 9\nvalue = -0.7"] ;
212 -> 216 ;
217 [label="ActualElapsedTime <= -0.8\nsquared_error = 0.0\nsamples = 2\nvalue = -0.7"] ;
216 -> 217 ;
218 [label="squared_error = 0.0\nsamples = 1\nvalue = -0.7"] ;
217 -> 218 ;
219 [label="squared_error = -0.0\nsamples = 1\nvalue = -0.6"] ;
217 -> 219 ;
220 [label="TaxiOut <= -0.7\nsquared_error = 0.0\nsamples = 7\nvalue = -0.7"] ;
216 -> 220 ;
221 [label="TaxiOut <= -0.8\nsquared_error = 0.0\nsamples = 5\nvalue = -0.7"] ;
220 -> 221 ;
222 [label="squared_error = 0.0\nsamples = 2\nvalue = -0.7"] ;
221 -> 222 ;
223 [label="squared_error = 0.0\nsamples = 3\nvalue = -0.7"] ;
221 -> 223 ;
224 [label="squared_error = 0.0\nsamples = 2\nvalue = -0.7"] ;
220 -> 224 ;
225 [label="squared_error = 0.0\nsamples = 1\nvalue = -0.4"] ;
203 -> 225 ;
226 [label="AirTime <= -0.6\nsquared_error = 0.0\nsamples = 148\nvalue = -0.8"] ;
166 -> 226 ;
227 [label="CRSElapsedTime <= -0.5\nsquared_error = 0.0\nsamples = 18\nvalue = -0.9"] ;
226 -> 227 ;
228 [label="AirTime <= -0.7\nsquared_error = 0.0\nsamples = 14\nvalue = -0.8"] ;
227 -> 228 ;
229 [label="AirTime <= -0.8\nsquared_error = 0.0\nsamples = 8\nvalue = -0.9"] ;
228 -> 229 ;
230 [label="squared_error = 0.0\nsamples = 1\nvalue = -1.0"] ;
229 -> 230 ;
231 [label="UniqueCarrier_MQ <= 0.5\nsquared_error = 0.0\nsamples = 7\nvalue = -0.9"] ;
229 -> 231 ;
232 [label="Distance <= -0.7\nsquared_error = 0.0\nsamples = 5\nvalue = -0.9"] ;
231 -> 232 ;
233 [label="AirTime <= -0.7\nsquared_error = 0.0\nsamples = 2\nvalue = -0.9"] ;
232 -> 233 ;
234 [label="squared_error = 0.0\nsamples = 1\nvalue = -0.9"] ;
233 -> 234 ;
235 [label="squared_error = -0.0\nsamples = 1\nvalue = -0.9"] ;
233 -> 235 ;
236 [label="squared_error = -0.0\nsamples = 3\nvalue = -0.9"] ;
232 -> 236 ;
237 [label="squared_error = 0.0\nsamples = 2\nvalue = -0.8"] ;
231 -> 237 ;
238 [label="CRSElapsedTime <= -0.7\nsquared_error = 0.0\nsamples = 6\nvalue = -0.8"] ;
228 -> 238 ;
239 [label="DepDelay <= -0.7\nsquared_error = 0.0\nsamples = 3\nvalue = -0.7"] ;
238 -> 239 ;
240 [label="squared_error = 0.0\nsamples = 1\nvalue = -0.8"] ;
239 -> 240 ;
241 [label="UniqueCarrier_F9 <= 0.5\nsquared_error = 0.0\nsamples = 2\nvalue = -0.7"] ;
239 -> 241 ;
242 [label="squared_error = 0.0\nsamples = 1\nvalue = -0.7"] ;
241 -> 242 ;
243 [label="squared_error = 0.0\nsamples = 1\nvalue = -0.7"] ;
241 -> 243 ;
244 [label="UniqueCarrier_DL <= 0.5\nsquared_error = 0.0\nsamples = 3\nvalue = -0.8"] ;
238 -> 244 ;
245 [label="squared_error = -0.0\nsamples = 2\nvalue = -0.8"] ;
244 -> 245 ;
246 [label="squared_error = 0.0\nsamples = 1\nvalue = -0.9"] ;
244 -> 246 ;
247 [label="CRSArrTime <= -1.1\nsquared_error = 0.0\nsamples = 4\nvalue = -1.1"] ;
227 -> 247 ;
248 [label="squared_error = 0.0\nsamples = 1\nvalue = -1.2"] ;
247 -> 248 ;
249 [label="DayOfWeek <= 4.5\nsquared_error = 0.0\nsamples = 3\nvalue = -1.0"] ;
247 -> 249 ;
250 [label="TaxiOut <= -0.7\nsquared_error = 0.0\nsamples = 2\nvalue = -1.0"] ;
249 -> 250 ;
251 [label="squared_error = 0.0\nsamples = 1\nvalue = -1.0"] ;
250 -> 251 ;
252 [label="squared_error = -0.0\nsamples = 1\nvalue = -1.0"] ;
250 -> 252 ;
253 [label="squared_error = 0.0\nsamples = 1\nvalue = -1.1"] ;
249 -> 253 ;
254 [label="CRSElapsedTime <= -0.4\nsquared_error = 0.0\nsamples = 130\nvalue = -0.8"] ;
226 -> 254 ;
255 [label="ActualElapsedTime <= -0.5\nsquared_error = 0.0\nsamples = 50\nvalue = -0.7"] ;
254 -> 255 ;
256 [label="CRSElapsedTime <= -0.6\nsquared_error = 0.0\nsamples = 36\nvalue = -0.8"] ;
255 -> 256 ;
257 [label="ActualElapsedTime <= -0.7\nsquared_error = 0.0\nsamples = 18\nvalue = -0.7"] ;
256 -> 257 ;
258 [label="DayOfWeek <= 4.5\nsquared_error = 0.0\nsamples = 9\nvalue = -0.8"] ;
257 -> 258 ;
259 [label="ActualElapsedTime <= -0.7\nsquared_error = 0.0\nsamples = 6\nvalue = -0.7"] ;
258 -> 259 ;
260 [label="TaxiOut <= -0.8\nsquared_error = 0.0\nsamples = 3\nvalue = -0.7"] ;
259 -> 260 ;
261 [label="DepTime <= -0.0\nsquared_error = 0.0\nsamples = 2\nvalue = -0.8"] ;
260 -> 261 ;
262 [label="squared_error = 0.0\nsamples = 1\nvalue = -0.7"] ;
261 -> 262 ;
263 [label="squared_error = 0.0\nsamples = 1\nvalue = -0.8"] ;
261 -> 263 ;
264 [label="squared_error = -0.0\nsamples = 1\nvalue = -0.7"] ;
260 -> 264 ;
265 [label="DepTime <= -1.4\nsquared_error = 0.0\nsamples = 3\nvalue = -0.7"] ;
259 -> 265 ;
266 [label="squared_error = 0.0\nsamples = 1\nvalue = -0.7"] ;
265 -> 266 ;
267 [label="TaxiIn <= -0.4\nsquared_error = 0.0\nsamples = 2\nvalue = -0.7"] ;
265 -> 267 ;
268 [label="squared_error = 0.0\nsamples = 1\nvalue = -0.7"] ;
267 -> 268 ;
269 [label="squared_error = 0.0\nsamples = 1\nvalue = -0.7"] ;
267 -> 269 ;
270 [label="DayOfWeek <= 6.0\nsquared_error = 0.0\nsamples = 3\nvalue = -0.8"] ;
258 -> 270 ;
271 [label="squared_error = 0.0\nsamples = 1\nvalue = -0.8"] ;
270 -> 271 ;
272 [label="squared_error = 0.0\nsamples = 2\nvalue = -0.8"] ;
270 -> 272 ;
273 [label="ArrTime <= 0.3\nsquared_error = 0.0\nsamples = 9\nvalue = -0.7"] ;
257 -> 273 ;
274 [label="AirTime <= -0.5\nsquared_error = 0.0\nsamples = 7\nvalue = -0.7"] ;
273 -> 274 ;
275 [label="TaxiIn <= -0.2\nsquared_error = 0.0\nsamples = 4\nvalue = -0.7"] ;
274 -> 275 ;
276 [label="squared_error = -0.0\nsamples = 1\nvalue = -0.8"] ;
275 -> 276 ;
277 [label="CRSArrTime <= -0.2\nsquared_error = 0.0\nsamples = 3\nvalue = -0.7"] ;
275 -> 277 ;
278 [label="squared_error = 0.0\nsamples = 2\nvalue = -0.7"] ;
277 -> 278 ;
279 [label="squared_error = -0.0\nsamples = 1\nvalue = -0.7"] ;
277 -> 279 ;
280 [label="ArrTime <= -0.6\nsquared_error = 0.0\nsamples = 3\nvalue = -0.7"] ;
274 -> 280 ;
281 [label="squared_error = 0.0\nsamples = 2\nvalue = -0.7"] ;
280 -> 281 ;
282 [label="squared_error = -0.0\nsamples = 1\nvalue = -0.7"] ;
280 -> 282 ;
283 [label="CRSElapsedTime <= -0.7\nsquared_error = 0.0\nsamples = 2\nvalue = -0.6"] ;
273 -> 283 ;
284 [label="squared_error = 0.0\nsamples = 1\nvalue = -0.6"] ;
283 -> 284 ;
285 [label="squared_error = -0.0\nsamples = 1\nvalue = -0.6"] ;
283 -> 285 ;
286 [label="ActualElapsedTime <= -0.6\nsquared_error = 0.0\nsamples = 18\nvalue = -0.8"] ;
256 -> 286 ;
287 [label="TaxiOut <= -0.8\nsquared_error = 0.0\nsamples = 9\nvalue = -0.9"] ;
286 -> 287 ;
288 [label="AirTime <= -0.5\nsquared_error = 0.0\nsamples = 3\nvalue = -0.9"] ;
287 -> 288 ;
289 [label="squared_error = 0.0\nsamples = 1\nvalue = -0.9"] ;
288 -> 289 ;
290 [label="DepTime <= -1.3\nsquared_error = 0.0\nsamples = 2\nvalue = -0.9"] ;
288 -> 290 ;
291 [label="squared_error = 0.0\nsamples = 1\nvalue = -0.9"] ;
290 -> 291 ;
292 [label="squared_error = -0.0\nsamples = 1\nvalue = -0.9"] ;
290 -> 292 ;
293 [label="DepDelay <= -0.7\nsquared_error = 0.0\nsamples = 6\nvalue = -0.8"] ;
287 -> 293 ;
294 [label="squared_error = 0.0\nsamples = 2\nvalue = -0.8"] ;
293 -> 294 ;
295 [label="AirTime <= -0.5\nsquared_error = 0.0\nsamples = 4\nvalue = -0.9"] ;
293 -> 295 ;
296 [label="squared_error = 0.0\nsamples = 1\nvalue = -0.9"] ;
295 -> 296 ;
297 [label="Distance <= -0.6\nsquared_error = 0.0\nsamples = 3\nvalue = -0.9"] ;
295 -> 297 ;
298 [label="squared_error = 0.0\nsamples = 1\nvalue = -0.9"] ;
297 -> 298 ;
299 [label="squared_error = -0.0\nsamples = 2\nvalue = -0.9"] ;
297 -> 299 ;
300 [label="CRSElapsedTime <= -0.5\nsquared_error = 0.0\nsamples = 9\nvalue = -0.8"] ;
286 -> 300 ;
301 [label="DayOfWeek <= 1.5\nsquared_error = 0.0\nsamples = 3\nvalue = -0.7"] ;
300 -> 301 ;
302 [label="squared_error = 0.0\nsamples = 1\nvalue = -0.7"] ;
301 -> 302 ;
303 [label="squared_error = -0.0\nsamples = 2\nvalue = -0.7"] ;
301 -> 303 ;
304 [label="TaxiIn <= -0.2\nsquared_error = 0.0\nsamples = 6\nvalue = -0.8"] ;
300 -> 304 ;
305 [label="Distance <= -0.2\nsquared_error = 0.0\nsamples = 4\nvalue = -0.8"] ;
304 -> 305 ;
306 [label="squared_error = -0.0\nsamples = 3\nvalue = -0.8"] ;
305 -> 306 ;
307 [label="squared_error = 0.0\nsamples = 1\nvalue = -0.8"] ;
305 -> 307 ;
308 [label="UniqueCarrier_WN <= 0.5\nsquared_error = 0.0\nsamples = 2\nvalue = -0.8"] ;
304 -> 308 ;
309 [label="squared_error = 0.0\nsamples = 1\nvalue = -0.8"] ;
308 -> 309 ;
310 [label="squared_error = 0.0\nsamples = 1\nvalue = -0.8"] ;
308 -> 310 ;
311 [label="CRSElapsedTime <= -0.4\nsquared_error = 0.0\nsamples = 14\nvalue = -0.7"] ;
255 -> 311 ;
312 [label="AirTime <= -0.3\nsquared_error = 0.0\nsamples = 5\nvalue = -0.6"] ;
311 -> 312 ;
313 [label="UniqueCarrier_EV <= 0.5\nsquared_error = 0.0\nsamples = 2\nvalue = -0.5"] ;
312 -> 313 ;
314 [label="squared_error = 0.0\nsamples = 1\nvalue = -0.5"] ;
313 -> 314 ;
315 [label="squared_error = 0.0\nsamples = 1\nvalue = -0.6"] ;
313 -> 315 ;
316 [label="UniqueCarrier_XE <= 0.5\nsquared_error = 0.0\nsamples = 3\nvalue = -0.6"] ;
312 -> 316 ;
317 [label="Distance <= -0.5\nsquared_error = 0.0\nsamples = 2\nvalue = -0.6"] ;
316 -> 317 ;
318 [label="squared_error = 0.0\nsamples = 1\nvalue = -0.6"] ;
317 -> 318 ;
319 [label="squared_error = 0.0\nsamples = 1\nvalue = -0.6"] ;
317 -> 319 ;
320 [label="squared_error = -0.0\nsamples = 1\nvalue = -0.6"] ;
316 -> 320 ;
321 [label="ActualElapsedTime <= -0.5\nsquared_error = 0.0\nsamples = 9\nvalue = -0.7"] ;
311 -> 321 ;
322 [label="UniqueCarrier_FL <= 0.5\nsquared_error = 0.0\nsamples = 3\nvalue = -0.8"] ;
321 -> 322 ;
323 [label="TaxiIn <= -0.2\nsquared_error = 0.0\nsamples = 2\nvalue = -0.7"] ;
322 -> 323 ;
324 [label="squared_error = 0.0\nsamples = 1\nvalue = -0.7"] ;
323 -> 324 ;
325 [label="squared_error = -0.0\nsamples = 1\nvalue = -0.7"] ;
323 -> 325 ;
326 [label="squared_error = 0.0\nsamples = 1\nvalue = -0.8"] ;
322 -> 326 ;
327 [label="TaxiOut <= -0.7\nsquared_error = 0.0\nsamples = 6\nvalue = -0.7"] ;
321 -> 327 ;
328 [label="UniqueCarrier_XE <= 0.5\nsquared_error = 0.0\nsamples = 4\nvalue = -0.7"] ;
327 -> 328 ;
329 [label="CRSDepTime <= -0.4\nsquared_error = 0.0\nsamples = 3\nvalue = -0.6"] ;
328 -> 329 ;
330 [label="squared_error = 0.0\nsamples = 2\nvalue = -0.6"] ;
329 -> 330 ;
331 [label="squared_error = -0.0\nsamples = 1\nvalue = -0.7"] ;
329 -> 331 ;
332 [label="squared_error = 0.0\nsamples = 1\nvalue = -0.7"] ;
328 -> 332 ;
333 [label="AirTime <= -0.3\nsquared_error = 0.0\nsamples = 2\nvalue = -0.7"] ;
327 -> 333 ;
334 [label="squared_error = 0.0\nsamples = 1\nvalue = -0.7"] ;
333 -> 334 ;
335 [label="squared_error = -0.0\nsamples = 1\nvalue = -0.7"] ;
333 -> 335 ;
336 [label="AirTime <= -0.0\nsquared_error = 0.0\nsamples = 80\nvalue = -0.8"] ;
254 -> 336 ;
337 [label="CRSElapsedTime <= -0.0\nsquared_error = 0.0\nsamples = 44\nvalue = -0.9"] ;
336 -> 337 ;
338 [label="CRSElapsedTime <= -0.3\nsquared_error = 0.0\nsamples = 41\nvalue = -0.8"] ;
337 -> 338 ;
339 [label="AirTime <= -0.3\nsquared_error = 0.0\nsamples = 10\nvalue = -0.8"] ;
338 -> 339 ;
340 [label="ArrTime <= -1.2\nsquared_error = 0.0\nsamples = 5\nvalue = -0.8"] ;
339 -> 340 ;
341 [label="squared_error = 0.0\nsamples = 1\nvalue = -0.9"] ;
340 -> 341 ;
342 [label="UniqueCarrier_OH <= 0.5\nsquared_error = 0.0\nsamples = 4\nvalue = -0.8"] ;
340 -> 342 ;
343 [label="squared_error = 0.0\nsamples = 3\nvalue = -0.8"] ;
342 -> 343 ;
344 [label="squared_error = 0.0\nsamples = 1\nvalue = -0.9"] ;
342 -> 344 ;
345 [label="ArrTime <= 1.0\nsquared_error = 0.0\nsamples = 5\nvalue = -0.8"] ;
339 -> 345 ;
346 [label="TaxiIn <= -0.6\nsquared_error = 0.0\nsamples = 4\nvalue = -0.8"] ;
345 -> 346 ;
347 [label="squared_error = 0.0\nsamples = 1\nvalue = -0.8"] ;
346 -> 347 ;
348 [label="squared_error = 0.0\nsamples = 3\nvalue = -0.8"] ;
346 -> 348 ;
349 [label="squared_error = -0.0\nsamples = 1\nvalue = -0.7"] ;
345 -> 349 ;
350 [label="ActualElapsedTime <= -0.4\nsquared_error = 0.0\nsamples = 31\nvalue = -0.9"] ;
338 -> 350 ;
351 [label="TaxiIn <= -0.5\nsquared_error = 0.0\nsamples = 4\nvalue = -1.0"] ;
350 -> 351 ;
352 [label="squared_error = 0.0\nsamples = 1\nvalue = -0.9"] ;
351 -> 352 ;
353 [label="DepTime <= -0.2\nsquared_error = 0.0\nsamples = 3\nvalue = -1.0"] ;
351 -> 353 ;
354 [label="Distance <= -0.2\nsquared_error = 0.0\nsamples = 2\nvalue = -1.0"] ;
353 -> 354 ;
355 [label="squared_error = 0.0\nsamples = 1\nvalue = -1.0"] ;
354 -> 355 ;
356 [label="squared_error = 0.0\nsamples = 1\nvalue = -1.0"] ;
354 -> 356 ;
357 [label="squared_error = 0.0\nsamples = 1\nvalue = -1.1"] ;
353 -> 357 ;
358 [label="AirTime <= -0.1\nsquared_error = 0.0\nsamples = 27\nvalue = -0.8"] ;
350 -> 358 ;
359 [label="CRSElapsedTime <= -0.2\nsquared_error = 0.0\nsamples = 18\nvalue = -0.9"] ;
358 -> 359 ;
360 [label="ArrTime <= 0.2\nsquared_error = 0.0\nsamples = 3\nvalue = -0.8"] ;
359 -> 360 ;
361 [label="squared_error = 0.0\nsamples = 1\nvalue = -0.8"] ;
360 -> 361 ;
362 [label="TaxiIn <= -0.5\nsquared_error = 0.0\nsamples = 2\nvalue = -0.8"] ;
360 -> 362 ;
363 [label="squared_error = 0.0\nsamples = 1\nvalue = -0.8"] ;
362 -> 363 ;
364 [label="squared_error = 0.0\nsamples = 1\nvalue = -0.8"] ;
362 -> 364 ;
365 [label="AirTime <= -0.1\nsquared_error = 0.0\nsamples = 15\nvalue = -0.9"] ;
359 -> 365 ;
366 [label="DepDelay <= -0.7\nsquared_error = 0.0\nsamples = 11\nvalue = -0.9"] ;
365 -> 366 ;
367 [label="CRSArrTime <= -1.3\nsquared_error = 0.0\nsamples = 3\nvalue = -0.9"] ;
366 -> 367 ;
368 [label="squared_error = 0.0\nsamples = 1\nvalue = -1.0"] ;
367 -> 368 ;
369 [label="squared_error = -0.0\nsamples = 2\nvalue = -0.9"] ;
367 -> 369 ;
370 [label="AirTime <= -0.2\nsquared_error = 0.0\nsamples = 8\nvalue = -0.9"] ;
366 -> 370 ;
371 [label="ActualElapsedTime <= -0.3\nsquared_error = 0.0\nsamples = 4\nvalue = -0.9"] ;
370 -> 371 ;
372 [label="ArrTime <= 0.4\nsquared_error = 0.0\nsamples = 3\nvalue = -0.9"] ;
371 -> 372 ;
373 [label="squared_error = -0.0\nsamples = 2\nvalue = -0.9"] ;
372 -> 373 ;
374 [label="squared_error = 0.0\nsamples = 1\nvalue = -0.9"] ;
372 -> 374 ;
375 [label="squared_error = 0.0\nsamples = 1\nvalue = -0.9"] ;
371 -> 375 ;
376 [label="TaxiIn <= 0.2\nsquared_error = 0.0\nsamples = 4\nvalue = -0.9"] ;
370 -> 376 ;
377 [label="TaxiOut <= -0.7\nsquared_error = 0.0\nsamples = 3\nvalue = -0.9"] ;
376 -> 377 ;
378 [label="squared_error = -0.0\nsamples = 1\nvalue = -0.9"] ;
377 -> 378 ;
379 [label="squared_error = -0.0\nsamples = 2\nvalue = -0.9"] ;
377 -> 379 ;
380 [label="squared_error = -0.0\nsamples = 1\nvalue = -0.9"] ;
376 -> 380 ;
381 [label="CRSElapsedTime <= -0.1\nsquared_error = 0.0\nsamples = 4\nvalue = -0.8"] ;
365 -> 381 ;
382 [label="DepTime <= -0.3\nsquared_error = 0.0\nsamples = 3\nvalue = -0.8"] ;
381 -> 382 ;
383 [label="UniqueCarrier_WN <= 0.5\nsquared_error = 0.0\nsamples = 2\nvalue = -0.8"] ;
382 -> 383 ;
384 [label="squared_error = 0.0\nsamples = 1\nvalue = -0.8"] ;
383 -> 384 ;
385 [label="squared_error = 0.0\nsamples = 1\nvalue = -0.8"] ;
383 -> 385 ;
386 [label="squared_error = -0.0\nsamples = 1\nvalue = -0.8"] ;
382 -> 386 ;
387 [label="squared_error = 0.0\nsamples = 1\nvalue = -0.9"] ;
381 -> 387 ;
388 [label="CRSElapsedTime <= -0.2\nsquared_error = 0.0\nsamples = 9\nvalue = -0.8"] ;
358 -> 388 ;
389 [label="CRSDepTime <= -0.6\nsquared_error = 0.0\nsamples = 3\nvalue = -0.7"] ;
388 -> 389 ;
390 [label="DepTime <= -0.7\nsquared_error = 0.0\nsamples = 2\nvalue = -0.7"] ;
389 -> 390 ;
391 [label="squared_error = 0.0\nsamples = 1\nvalue = -0.7"] ;
390 -> 391 ;
392 [label="squared_error = 0.0\nsamples = 1\nvalue = -0.7"] ;
390 -> 392 ;
393 [label="squared_error = 0.0\nsamples = 1\nvalue = -0.8"] ;
389 -> 393 ;
394 [label="DepDelay <= -0.7\nsquared_error = 0.0\nsamples = 6\nvalue = -0.8"] ;
388 -> 394 ;
395 [label="squared_error = 0.0\nsamples = 3\nvalue = -0.8"] ;
394 -> 395 ;
396 [label="UniqueCarrier_WN <= 0.5\nsquared_error = 0.0\nsamples = 3\nvalue = -0.8"] ;
394 -> 396 ;
397 [label="squared_error = 0.0\nsamples = 2\nvalue = -0.8"] ;
396 -> 397 ;
398 [label="squared_error = 0.0\nsamples = 1\nvalue = -0.8"] ;
396 -> 398 ;
399 [label="TaxiIn <= -0.4\nsquared_error = 0.0\nsamples = 3\nvalue = -1.0"] ;
337 -> 399 ;
400 [label="squared_error = 0.0\nsamples = 1\nvalue = -1.1"] ;
399 -> 400 ;
401 [label="CRSArrTime <= -0.5\nsquared_error = 0.0\nsamples = 2\nvalue = -1.0"] ;
399 -> 401 ;
402 [label="squared_error = 0.0\nsamples = 1\nvalue = -1.0"] ;
401 -> 402 ;
403 [label="squared_error = 0.0\nsamples = 1\nvalue = -1.0"] ;
401 -> 403 ;
404 [label="Distance <= -0.1\nsquared_error = 0.0\nsamples = 36\nvalue = -0.8"] ;
336 -> 404 ;
405 [label="CRSDepTime <= 0.3\nsquared_error = 0.0\nsamples = 5\nvalue = -0.6"] ;
404 -> 405 ;
406 [label="ActualElapsedTime <= -0.1\nsquared_error = 0.0\nsamples = 2\nvalue = -0.6"] ;
405 -> 406 ;
407 [label="squared_error = 0.0\nsamples = 1\nvalue = -0.6"] ;
406 -> 407 ;
408 [label="squared_error = 0.0\nsamples = 1\nvalue = -0.6"] ;
406 -> 408 ;
409 [label="TaxiIn <= -0.2\nsquared_error = 0.0\nsamples = 3\nvalue = -0.7"] ;
405 -> 409 ;
410 [label="squared_error = 0.0\nsamples = 1\nvalue = -0.6"] ;
409 -> 410 ;
411 [label="DayOfWeek <= 3.0\nsquared_error = 0.0\nsamples = 2\nvalue = -0.7"] ;
409 -> 411 ;
412 [label="squared_error = 0.0\nsamples = 1\nvalue = -0.7"] ;
411 -> 412 ;
413 [label="squared_error = -0.0\nsamples = 1\nvalue = -0.7"] ;
411 -> 413 ;
414 [label="ActualElapsedTime <= 0.0\nsquared_error = 0.0\nsamples = 31\nvalue = -0.8"] ;
404 -> 414 ;
415 [label="Distance <= 0.2\nsquared_error = 0.0\nsamples = 21\nvalue = -0.8"] ;
414 -> 415 ;
416 [label="TaxiOut <= -0.8\nsquared_error = 0.0\nsamples = 14\nvalue = -0.8"] ;
415 -> 416 ;
417 [label="Distance <= 0.1\nsquared_error = 0.0\nsamples = 3\nvalue = -0.9"] ;
416 -> 417 ;
418 [label="CRSElapsedTime <= -0.0\nsquared_error = 0.0\nsamples = 2\nvalue = -0.8"] ;
417 -> 418 ;
419 [label="squared_error = 0.0\nsamples = 1\nvalue = -0.8"] ;
418 -> 419 ;
420 [label="squared_error = 0.0\nsamples = 1\nvalue = -0.8"] ;
418 -> 420 ;
421 [label="squared_error = 0.0\nsamples = 1\nvalue = -0.9"] ;
417 -> 421 ;
422 [label="DepTime <= 1.2\nsquared_error = 0.0\nsamples = 11\nvalue = -0.8"] ;
416 -> 422 ;
423 [label="CRSArrTime <= -0.0\nsquared_error = 0.0\nsamples = 10\nvalue = -0.8"] ;
422 -> 423 ;
424 [label="UniqueCarrier_AA <= 0.5\nsquared_error = 0.0\nsamples = 3\nvalue = -0.8"] ;
423 -> 424 ;
425 [label="DayOfWeek <= 5.5\nsquared_error = 0.0\nsamples = 2\nvalue = -0.8"] ;
424 -> 425 ;
426 [label="squared_error = 0.0\nsamples = 1\nvalue = -0.8"] ;
425 -> 426 ;
427 [label="squared_error = -0.0\nsamples = 1\nvalue = -0.8"] ;
425 -> 427 ;
428 [label="squared_error = 0.0\nsamples = 1\nvalue = -0.8"] ;
424 -> 428 ;
429 [label="TaxiIn <= -0.2\nsquared_error = 0.0\nsamples = 7\nvalue = -0.7"] ;
423 -> 429 ;
430 [label="TaxiIn <= -0.6\nsquared_error = 0.0\nsamples = 5\nvalue = -0.7"] ;
429 -> 430 ;
431 [label="squared_error = 0.0\nsamples = 2\nvalue = -0.7"] ;
430 -> 431 ;
432 [label="AirTime <= 0.2\nsquared_error = 0.0\nsamples = 3\nvalue = -0.7"] ;
430 -> 432 ;
433 [label="squared_error = 0.0\nsamples = 2\nvalue = -0.7"] ;
432 -> 433 ;
434 [label="squared_error = 0.0\nsamples = 1\nvalue = -0.7"] ;
432 -> 434 ;
435 [label="squared_error = 0.0\nsamples = 2\nvalue = -0.8"] ;
429 -> 435 ;
436 [label="squared_error = -0.0\nsamples = 1\nvalue = -0.9"] ;
422 -> 436 ;
437 [label="Distance <= 0.3\nsquared_error = 0.0\nsamples = 7\nvalue = -0.9"] ;
415 -> 437 ;
438 [label="DepTime <= -0.7\nsquared_error = 0.0\nsamples = 5\nvalue = -0.9"] ;
437 -> 438 ;
439 [label="squared_error = 0.0\nsamples = 1\nvalue = -0.8"] ;
438 -> 439 ;
440 [label="TaxiIn <= -0.6\nsquared_error = 0.0\nsamples = 4\nvalue = -0.9"] ;
438 -> 440 ;
441 [label="squared_error = 0.0\nsamples = 1\nvalue = -0.9"] ;
440 -> 441 ;
442 [label="squared_error = 0.0\nsamples = 3\nvalue = -0.9"] ;
440 -> 442 ;
443 [label="DepDelay <= -0.7\nsquared_error = 0.0\nsamples = 2\nvalue = -0.9"] ;
437 -> 443 ;
444 [label="squared_error = 0.0\nsamples = 1\nvalue = -0.9"] ;
443 -> 444 ;
445 [label="squared_error = 0.0\nsamples = 1\nvalue = -1.0"] ;
443 -> 445 ;
446 [label="Distance <= 0.3\nsquared_error = 0.0\nsamples = 10\nvalue = -0.7"] ;
414 -> 446 ;
447 [label="CRSDepTime <= -1.5\nsquared_error = 0.0\nsamples = 7\nvalue = -0.7"] ;
446 -> 447 ;
448 [label="squared_error = 0.0\nsamples = 1\nvalue = -0.6"] ;
447 -> 448 ;
449 [label="Distance <= -0.1\nsquared_error = 0.0\nsamples = 6\nvalue = -0.7"] ;
447 -> 449 ;
450 [label="squared_error = 0.0\nsamples = 1\nvalue = -0.8"] ;
449 -> 450 ;
451 [label="CRSArrTime <= 0.3\nsquared_error = 0.0\nsamples = 5\nvalue = -0.7"] ;
449 -> 451 ;
452 [label="DepDelay <= -0.7\nsquared_error = 0.0\nsamples = 4\nvalue = -0.7"] ;
451 -> 452 ;
453 [label="DepDelay <= -0.7\nsquared_error = 0.0\nsamples = 3\nvalue = -0.7"] ;
452 -> 453 ;
454 [label="squared_error = 0.0\nsamples = 1\nvalue = -0.7"] ;
453 -> 454 ;
455 [label="squared_error = -0.0\nsamples = 2\nvalue = -0.7"] ;
453 -> 455 ;
456 [label="squared_error = -0.0\nsamples = 1\nvalue = -0.7"] ;
452 -> 456 ;
457 [label="squared_error = -0.0\nsamples = 1\nvalue = -0.7"] ;
451 -> 457 ;
458 [label="CRSDepTime <= -1.4\nsquared_error = 0.0\nsamples = 3\nvalue = -0.8"] ;
446 -> 458 ;
459 [label="squared_error = 0.0\nsamples = 1\nvalue = -0.8"] ;
458 -> 459 ;
460 [label="squared_error = -0.0\nsamples = 2\nvalue = -0.8"] ;
458 -> 460 ;
461 [label="TaxiIn <= -0.2\nsquared_error = 0.0\nsamples = 5\nvalue = -0.5"] ;
105 -> 461 ;
462 [label="TaxiOut <= -0.7\nsquared_error = 0.0\nsamples = 2\nvalue = -0.6"] ;
461 -> 462 ;
463 [label="squared_error = 0.0\nsamples = 1\nvalue = -0.6"] ;
462 -> 463 ;
464 [label="squared_error = 0.0\nsamples = 1\nvalue = -0.6"] ;
462 -> 464 ;
465 [label="AirTime <= 0.5\nsquared_error = 0.0\nsamples = 3\nvalue = -0.3"] ;
461 -> 465 ;
466 [label="TaxiOut <= -0.6\nsquared_error = 0.0\nsamples = 2\nvalue = -0.4"] ;
465 -> 466 ;
467 [label="squared_error = 0.0\nsamples = 1\nvalue = -0.4"] ;
466 -> 467 ;
468 [label="squared_error = -0.0\nsamples = 1\nvalue = -0.4"] ;
466 -> 468 ;
469 [label="squared_error = -0.0\nsamples = 1\nvalue = -0.3"] ;
465 -> 469 ;
470 [label="ActualElapsedTime <= 0.0\nsquared_error = 0.0\nsamples = 44\nvalue = -0.9"] ;
104 -> 470 ;
471 [label="CRSArrTime <= -1.5\nsquared_error = 0.0\nsamples = 8\nvalue = -1.1"] ;
470 -> 471 ;
472 [label="squared_error = 0.0\nsamples = 1\nvalue = -1.3"] ;
471 -> 472 ;
473 [label="DayOfWeek <= 3.0\nsquared_error = 0.0\nsamples = 7\nvalue = -1.0"] ;
471 -> 473 ;
474 [label="TaxiIn <= 0.3\nsquared_error = 0.0\nsamples = 3\nvalue = -1.0"] ;
473 -> 474 ;
475 [label="TaxiIn <= -0.3\nsquared_error = 0.0\nsamples = 2\nvalue = -1.0"] ;
474 -> 475 ;
476 [label="squared_error = 0.0\nsamples = 1\nvalue = -1.0"] ;
475 -> 476 ;
477 [label="squared_error = 0.0\nsamples = 1\nvalue = -1.0"] ;
475 -> 477 ;
478 [label="squared_error = -0.0\nsamples = 1\nvalue = -1.0"] ;
474 -> 478 ;
479 [label="TaxiOut <= -0.6\nsquared_error = 0.0\nsamples = 4\nvalue = -1.1"] ;
473 -> 479 ;
480 [label="ArrTime <= -0.3\nsquared_error = 0.0\nsamples = 3\nvalue = -1.1"] ;
479 -> 480 ;
481 [label="squared_error = 0.0\nsamples = 1\nvalue = -1.1"] ;
480 -> 481 ;
482 [label="squared_error = -0.0\nsamples = 2\nvalue = -1.1"] ;
480 -> 482 ;
483 [label="squared_error = 0.0\nsamples = 1\nvalue = -1.0"] ;
479 -> 483 ;
484 [label="Distance <= 0.5\nsquared_error = 0.0\nsamples = 36\nvalue = -0.8"] ;
470 -> 484 ;
485 [label="AirTime <= 0.6\nsquared_error = 0.0\nsamples = 23\nvalue = -0.8"] ;
484 -> 485 ;
486 [label="CRSElapsedTime <= 0.2\nsquared_error = 0.0\nsamples = 17\nvalue = -0.8"] ;
485 -> 486 ;
487 [label="squared_error = 0.0\nsamples = 1\nvalue = -0.7"] ;
486 -> 487 ;
488 [label="AirTime <= 0.4\nsquared_error = 0.0\nsamples = 16\nvalue = -0.9"] ;
486 -> 488 ;
489 [label="AirTime <= 0.3\nsquared_error = 0.0\nsamples = 14\nvalue = -0.8"] ;
488 -> 489 ;
490 [label="ArrTime <= 0.5\nsquared_error = 0.0\nsamples = 10\nvalue = -0.9"] ;
489 -> 490 ;
491 [label="ActualElapsedTime <= 0.1\nsquared_error = 0.0\nsamples = 9\nvalue = -0.9"] ;
490 -> 491 ;
492 [label="TaxiOut <= -0.8\nsquared_error = 0.0\nsamples = 6\nvalue = -0.9"] ;
491 -> 492 ;
493 [label="squared_error = 0.0\nsamples = 1\nvalue = -0.9"] ;
492 -> 493 ;
494 [label="ActualElapsedTime <= 0.1\nsquared_error = 0.0\nsamples = 5\nvalue = -0.9"] ;
492 -> 494 ;
495 [label="DepDelay <= -0.7\nsquared_error = 0.0\nsamples = 4\nvalue = -0.9"] ;
494 -> 495 ;
496 [label="squared_error = 0.0\nsamples = 3\nvalue = -0.9"] ;
495 -> 496 ;
497 [label="squared_error = 0.0\nsamples = 1\nvalue = -0.9"] ;
495 -> 497 ;
498 [label="squared_error = -0.0\nsamples = 1\nvalue = -0.9"] ;
494 -> 498 ;
499 [label="DepDelay <= -0.7\nsquared_error = 0.0\nsamples = 3\nvalue = -0.8"] ;
491 -> 499 ;
500 [label="squared_error = 0.0\nsamples = 1\nvalue = -0.9"] ;
499 -> 500 ;
501 [label="squared_error = -0.0\nsamples = 2\nvalue = -0.8"] ;
499 -> 501 ;
502 [label="squared_error = -0.0\nsamples = 1\nvalue = -0.8"] ;
490 -> 502 ;
503 [label="DepTime <= -1.5\nsquared_error = 0.0\nsamples = 4\nvalue = -0.7"] ;
489 -> 503 ;
504 [label="squared_error = 0.0\nsamples = 1\nvalue = -0.9"] ;
503 -> 504 ;
505 [label="UniqueCarrier_WN <= 0.5\nsquared_error = 0.0\nsamples = 3\nvalue = -0.7"] ;
503 -> 505 ;
506 [label="squared_error = 0.0\nsamples = 1\nvalue = -0.7"] ;
505 -> 506 ;
507 [label="CRSDepTime <= -0.5\nsquared_error = 0.0\nsamples = 2\nvalue = -0.7"] ;
505 -> 507 ;
508 [label="squared_error = 0.0\nsamples = 1\nvalue = -0.7"] ;
507 -> 508 ;
509 [label="squared_error = -0.0\nsamples = 1\nvalue = -0.7"] ;
507 -> 509 ;
510 [label="TaxiOut <= -0.7\nsquared_error = 0.0\nsamples = 2\nvalue = -1.0"] ;
488 -> 510 ;
511 [label="squared_error = 0.0\nsamples = 1\nvalue = -1.0"] ;
510 -> 511 ;
512 [label="squared_error = -0.0\nsamples = 1\nvalue = -0.9"] ;
510 -> 512 ;
513 [label="DepTime <= 0.3\nsquared_error = 0.0\nsamples = 6\nvalue = -0.6"] ;
485 -> 513 ;
514 [label="UniqueCarrier_WN <= 0.5\nsquared_error = 0.0\nsamples = 5\nvalue = -0.6"] ;
513 -> 514 ;
515 [label="squared_error = 0.0\nsamples = 1\nvalue = -0.6"] ;
514 -> 515 ;
516 [label="ArrTime <= -0.8\nsquared_error = 0.0\nsamples = 4\nvalue = -0.6"] ;
514 -> 516 ;
517 [label="squared_error = 0.0\nsamples = 1\nvalue = -0.5"] ;
516 -> 517 ;
518 [label="ArrTime <= 0.3\nsquared_error = 0.0\nsamples = 3\nvalue = -0.6"] ;
516 -> 518 ;
519 [label="squared_error = 0.0\nsamples = 2\nvalue = -0.6"] ;
518 -> 519 ;
520 [label="squared_error = -0.0\nsamples = 1\nvalue = -0.6"] ;
518 -> 520 ;
521 [label="squared_error = 0.0\nsamples = 1\nvalue = -0.4"] ;
513 -> 521 ;
522 [label="DepTime <= -1.8\nsquared_error = 0.0\nsamples = 13\nvalue = -0.9"] ;
484 -> 522 ;
523 [label="squared_error = 0.0\nsamples = 1\nvalue = -0.6"] ;
522 -> 523 ;
524 [label="TaxiOut <= -0.7\nsquared_error = 0.0\nsamples = 12\nvalue = -0.9"] ;
522 -> 524 ;
525 [label="ActualElapsedTime <= 0.2\nsquared_error = 0.0\nsamples = 7\nvalue = -0.9"] ;
524 -> 525 ;
526 [label="squared_error = 0.0\nsamples = 2\nvalue = -1.0"] ;
525 -> 526 ;
527 [label="Distance <= 0.6\nsquared_error = 0.0\nsamples = 5\nvalue = -0.9"] ;
525 -> 527 ;
528 [label="ArrTime <= 0.6\nsquared_error = 0.0\nsamples = 2\nvalue = -0.8"] ;
527 -> 528 ;
529 [label="squared_error = 0.0\nsamples = 1\nvalue = -0.8"] ;
528 -> 529 ;
530 [label="squared_error = 0.0\nsamples = 1\nvalue = -0.8"] ;
528 -> 530 ;
531 [label="CRSArrTime <= 1.1\nsquared_error = 0.0\nsamples = 3\nvalue = -0.9"] ;
527 -> 531 ;
532 [label="Distance <= 0.8\nsquared_error = 0.0\nsamples = 2\nvalue = -0.9"] ;
531 -> 532 ;
533 [label="squared_error = 0.0\nsamples = 1\nvalue = -0.9"] ;
532 -> 533 ;
534 [label="squared_error = 0.0\nsamples = 1\nvalue = -0.9"] ;
532 -> 534 ;
535 [label="squared_error = 0.0\nsamples = 1\nvalue = -0.9"] ;
531 -> 535 ;
536 [label="DepDelay <= -0.7\nsquared_error = 0.0\nsamples = 5\nvalue = -1.0"] ;
524 -> 536 ;
537 [label="squared_error = 0.0\nsamples = 1\nvalue = -1.0"] ;
536 -> 537 ;
538 [label="CRSArrTime <= 0.4\nsquared_error = 0.0\nsamples = 4\nvalue = -1.0"] ;
536 -> 538 ;
539 [label="squared_error = 0.0\nsamples = 2\nvalue = -1.0"] ;
538 -> 539 ;
540 [label="DepTime <= 0.8\nsquared_error = 0.0\nsamples = 2\nvalue = -0.9"] ;
538 -> 540 ;
541 [label="squared_error = 0.0\nsamples = 1\nvalue = -0.9"] ;
540 -> 541 ;
542 [label="squared_error = -0.0\nsamples = 1\nvalue = -1.0"] ;
540 -> 542 ;
543 [label="Distance <= 0.3\nsquared_error = 0.0\nsamples = 126\nvalue = -0.7"] ;
11 -> 543 ;
544 [label="AirTime <= 0.3\nsquared_error = 0.0\nsamples = 106\nvalue = -0.7"] ;
543 -> 544 ;
545 [label="CRSElapsedTime <= -1.3\nsquared_error = 0.0\nsamples = 100\nvalue = -0.7"] ;
544 -> 545 ;
546 [label="ActualElapsedTime <= -1.4\nsquared_error = 0.0\nsamples = 6\nvalue = -0.6"] ;
545 -> 546 ;
547 [label="TaxiOut <= -0.9\nsquared_error = 0.0\nsamples = 2\nvalue = -0.7"] ;
546 -> 547 ;
548 [label="squared_error = 0.0\nsamples = 1\nvalue = -0.7"] ;
547 -> 548 ;
549 [label="squared_error = 0.0\nsamples = 1\nvalue = -0.6"] ;
547 -> 549 ;
550 [label="ActualElapsedTime <= -1.3\nsquared_error = 0.0\nsamples = 4\nvalue = -0.5"] ;
546 -> 550 ;
551 [label="squared_error = 0.0\nsamples = 1\nvalue = -0.6"] ;
550 -> 551 ;
552 [label="TaxiIn <= 0.1\nsquared_error = 0.0\nsamples = 3\nvalue = -0.5"] ;
550 -> 552 ;
553 [label="ActualElapsedTime <= -1.3\nsquared_error = 0.0\nsamples = 2\nvalue = -0.5"] ;
552 -> 553 ;
554 [label="squared_error = 0.0\nsamples = 1\nvalue = -0.5"] ;
553 -> 554 ;
555 [label="squared_error = 0.0\nsamples = 1\nvalue = -0.5"] ;
553 -> 555 ;
556 [label="squared_error = -0.0\nsamples = 1\nvalue = -0.5"] ;
552 -> 556 ;
557 [label="DepTime <= -0.7\nsquared_error = 0.0\nsamples = 94\nvalue = -0.7"] ;
545 -> 557 ;
558 [label="ArrTime <= -0.4\nsquared_error = 0.0\nsamples = 28\nvalue = -0.7"] ;
557 -> 558 ;
559 [label="TaxiIn <= 0.5\nsquared_error = 0.0\nsamples = 26\nvalue = -0.7"] ;
558 -> 559 ;
560 [label="ArrTime <= -0.7\nsquared_error = 0.0\nsamples = 24\nvalue = -0.7"] ;
559 -> 560 ;
561 [label="TaxiIn <= -0.2\nsquared_error = 0.0\nsamples = 17\nvalue = -0.7"] ;
560 -> 561 ;
562 [label="AirTime <= -0.7\nsquared_error = 0.0\nsamples = 12\nvalue = -0.7"] ;
561 -> 562 ;
563 [label="DepDelay <= -0.6\nsquared_error = 0.0\nsamples = 8\nvalue = -0.7"] ;
562 -> 563 ;
564 [label="TaxiOut <= -0.8\nsquared_error = 0.0\nsamples = 4\nvalue = -0.8"] ;
563 -> 564 ;
565 [label="squared_error = 0.0\nsamples = 1\nvalue = -0.7"] ;
564 -> 565 ;
566 [label="squared_error = 0.0\nsamples = 3\nvalue = -0.8"] ;
564 -> 566 ;
567 [label="ArrTime <= -1.3\nsquared_error = 0.0\nsamples = 4\nvalue = -0.7"] ;
563 -> 567 ;
568 [label="squared_error = 0.0\nsamples = 1\nvalue = -0.7"] ;
567 -> 568 ;
569 [label="DepTime <= -1.6\nsquared_error = 0.0\nsamples = 3\nvalue = -0.7"] ;
567 -> 569 ;
570 [label="squared_error = 0.0\nsamples = 1\nvalue = -0.7"] ;
569 -> 570 ;
571 [label="squared_error = -0.0\nsamples = 2\nvalue = -0.7"] ;
569 -> 571 ;
572 [label="TaxiIn <= -0.4\nsquared_error = 0.0\nsamples = 4\nvalue = -0.7"] ;
562 -> 572 ;
573 [label="TaxiOut <= -0.7\nsquared_error = 0.0\nsamples = 3\nvalue = -0.6"] ;
572 -> 573 ;
574 [label="squared_error = 0.0\nsamples = 1\nvalue = -0.6"] ;
573 -> 574 ;
575 [label="ActualElapsedTime <= -0.4\nsquared_error = 0.0\nsamples = 2\nvalue = -0.6"] ;
573 -> 575 ;
576 [label="squared_error = 0.0\nsamples = 1\nvalue = -0.6"] ;
575 -> 576 ;
577 [label="squared_error = 0.0\nsamples = 1\nvalue = -0.6"] ;
575 -> 577 ;
578 [label="squared_error = 0.0\nsamples = 1\nvalue = -0.7"] ;
572 -> 578 ;
579 [label="DayOfWeek <= 2.0\nsquared_error = 0.0\nsamples = 5\nvalue = -0.6"] ;
561 -> 579 ;
580 [label="squared_error = 0.0\nsamples = 1\nvalue = -0.7"] ;
579 -> 580 ;
581 [label="DepTime <= -1.2\nsquared_error = 0.0\nsamples = 4\nvalue = -0.6"] ;
579 -> 581 ;
582 [label="squared_error = -0.0\nsamples = 2\nvalue = -0.6"] ;
581 -> 582 ;
583 [label="CRSElapsedTime <= -1.0\nsquared_error = 0.0\nsamples = 2\nvalue = -0.5"] ;
581 -> 583 ;
584 [label="squared_error = 0.0\nsamples = 1\nvalue = -0.6"] ;
583 -> 584 ;
585 [label="squared_error = 0.0\nsamples = 1\nvalue = -0.5"] ;
583 -> 585 ;
586 [label="TaxiOut <= -0.7\nsquared_error = 0.0\nsamples = 7\nvalue = -0.7"] ;
560 -> 586 ;
587 [label="AirTime <= -0.7\nsquared_error = 0.0\nsamples = 3\nvalue = -0.8"] ;
586 -> 587 ;
588 [label="squared_error = 0.0\nsamples = 1\nvalue = -0.8"] ;
587 -> 588 ;
589 [label="UniqueCarrier_OO <= 0.5\nsquared_error = 0.0\nsamples = 2\nvalue = -0.8"] ;
587 -> 589 ;
590 [label="squared_error = 0.0\nsamples = 1\nvalue = -0.8"] ;
589 -> 590 ;
591 [label="squared_error = 0.0\nsamples = 1\nvalue = -0.8"] ;
589 -> 591 ;
592 [label="DepTime <= -0.8\nsquared_error = 0.0\nsamples = 4\nvalue = -0.7"] ;
586 -> 592 ;
593 [label="squared_error = 0.0\nsamples = 2\nvalue = -0.7"] ;
592 -> 593 ;
594 [label="squared_error = -0.0\nsamples = 2\nvalue = -0.7"] ;
592 -> 594 ;
595 [label="ActualElapsedTime <= -0.8\nsquared_error = 0.0\nsamples = 2\nvalue = -0.6"] ;
559 -> 595 ;
596 [label="squared_error = 0.0\nsamples = 1\nvalue = -0.6"] ;
595 -> 596 ;
597 [label="squared_error = 0.0\nsamples = 1\nvalue = -0.6"] ;
595 -> 597 ;
598 [label="Distance <= -0.2\nsquared_error = 0.0\nsamples = 2\nvalue = -0.5"] ;
558 -> 598 ;
599 [label="squared_error = 0.0\nsamples = 1\nvalue = -0.6"] ;
598 -> 599 ;
600 [label="squared_error = 0.0\nsamples = 1\nvalue = -0.4"] ;
598 -> 600 ;
601 [label="ArrTime <= 1.0\nsquared_error = 0.0\nsamples = 66\nvalue = -0.7"] ;
557 -> 601 ;
602 [label="Distance <= -0.7\nsquared_error = 0.0\nsamples = 56\nvalue = -0.8"] ;
601 -> 602 ;
603 [label="ActualElapsedTime <= -1.2\nsquared_error = 0.0\nsamples = 22\nvalue = -0.7"] ;
602 -> 603 ;
604 [label="TaxiOut <= -0.8\nsquared_error = 0.0\nsamples = 2\nvalue = -0.8"] ;
603 -> 604 ;
605 [label="squared_error = 0.0\nsamples = 1\nvalue = -0.9"] ;
604 -> 605 ;
606 [label="squared_error = 0.0\nsamples = 1\nvalue = -0.8"] ;
604 -> 606 ;
607 [label="DayOfWeek <= 4.0\nsquared_error = 0.0\nsamples = 20\nvalue = -0.7"] ;
603 -> 607 ;
608 [label="DayOfWeek <= 2.5\nsquared_error = 0.0\nsamples = 6\nvalue = -0.7"] ;
607 -> 608 ;
609 [label="ArrTime <= -0.3\nsquared_error = 0.0\nsamples = 3\nvalue = -0.7"] ;
608 -> 609 ;
610 [label="squared_error = 0.0\nsamples = 1\nvalue = -0.7"] ;
609 -> 610 ;
611 [label="squared_error = 0.0\nsamples = 2\nvalue = -0.7"] ;
609 -> 611 ;
612 [label="Distance <= -0.7\nsquared_error = 0.0\nsamples = 3\nvalue = -0.7"] ;
608 -> 612 ;
613 [label="squared_error = 0.0\nsamples = 2\nvalue = -0.6"] ;
612 -> 613 ;
614 [label="squared_error = -0.0\nsamples = 1\nvalue = -0.7"] ;
612 -> 614 ;
615 [label="ArrTime <= 0.6\nsquared_error = 0.0\nsamples = 14\nvalue = -0.7"] ;
607 -> 615 ;
616 [label="ActualElapsedTime <= -0.9\nsquared_error = 0.0\nsamples = 8\nvalue = -0.7"] ;
615 -> 616 ;
617 [label="Distance <= -1.0\nsquared_error = 0.0\nsamples = 7\nvalue = -0.7"] ;
616 -> 617 ;
618 [label="squared_error = 0.0\nsamples = 1\nvalue = -0.7"] ;
617 -> 618 ;
619 [label="AirTime <= -0.7\nsquared_error = 0.0\nsamples = 6\nvalue = -0.7"] ;
617 -> 619 ;
620 [label="DepTime <= 0.6\nsquared_error = 0.0\nsamples = 5\nvalue = -0.7"] ;
619 -> 620 ;
621 [label="squared_error = 0.0\nsamples = 4\nvalue = -0.7"] ;
620 -> 621 ;
622 [label="squared_error = 0.0\nsamples = 1\nvalue = -0.7"] ;
620 -> 622 ;
623 [label="squared_error = 0.0\nsamples = 1\nvalue = -0.7"] ;
619 -> 623 ;
624 [label="squared_error = 0.0\nsamples = 1\nvalue = -0.6"] ;
616 -> 624 ;
625 [label="ActualElapsedTime <= -0.9\nsquared_error = 0.0\nsamples = 6\nvalue = -0.7"] ;
615 -> 625 ;
626 [label="TaxiOut <= -0.8\nsquared_error = 0.0\nsamples = 4\nvalue = -0.7"] ;
625 -> 626 ;
627 [label="Distance <= -0.7\nsquared_error = 0.0\nsamples = 3\nvalue = -0.7"] ;
626 -> 627 ;
628 [label="squared_error = 0.0\nsamples = 1\nvalue = -0.7"] ;
627 -> 628 ;
629 [label="squared_error = -0.0\nsamples = 2\nvalue = -0.7"] ;
627 -> 629 ;
630 [label="squared_error = 0.0\nsamples = 1\nvalue = -0.7"] ;
626 -> 630 ;
631 [label="CRSDepTime <= 1.1\nsquared_error = 0.0\nsamples = 2\nvalue = -0.8"] ;
625 -> 631 ;
632 [label="squared_error = 0.0\nsamples = 1\nvalue = -0.7"] ;
631 -> 632 ;
633 [label="squared_error = 0.0\nsamples = 1\nvalue = -0.8"] ;
631 -> 633 ;
634 [label="DepTime <= 0.5\nsquared_error = 0.0\nsamples = 34\nvalue = -0.8"] ;
602 -> 634 ;
635 [label="CRSArrTime <= -0.0\nsquared_error = 0.0\nsamples = 25\nvalue = -0.8"] ;
634 -> 635 ;
636 [label="DayOfWeek <= 6.5\nsquared_error = 0.0\nsamples = 14\nvalue = -0.8"] ;
635 -> 636 ;
637 [label="DepTime <= -0.3\nsquared_error = 0.0\nsamples = 10\nvalue = -0.8"] ;
636 -> 637 ;
638 [label="DepDelay <= -0.6\nsquared_error = 0.0\nsamples = 6\nvalue = -0.8"] ;
637 -> 638 ;
639 [label="TaxiIn <= -0.4\nsquared_error = 0.0\nsamples = 5\nvalue = -0.8"] ;
638 -> 639 ;
640 [label="CRSElapsedTime <= -0.1\nsquared_error = 0.0\nsamples = 2\nvalue = -0.8"] ;
639 -> 640 ;
641 [label="squared_error = 0.0\nsamples = 1\nvalue = -0.8"] ;
640 -> 641 ;
642 [label="squared_error = 0.0\nsamples = 1\nvalue = -0.8"] ;
640 -> 642 ;
643 [label="TaxiOut <= -0.7\nsquared_error = 0.0\nsamples = 3\nvalue = -0.8"] ;
639 -> 643 ;
644 [label="squared_error = 0.0\nsamples = 1\nvalue = -0.9"] ;
643 -> 644 ;
645 [label="squared_error = 0.0\nsamples = 2\nvalue = -0.8"] ;
643 -> 645 ;
646 [label="squared_error = -0.0\nsamples = 1\nvalue = -0.9"] ;
638 -> 646 ;
647 [label="DepTime <= -0.2\nsquared_error = 0.0\nsamples = 4\nvalue = -0.8"] ;
637 -> 647 ;
648 [label="squared_error = 0.0\nsamples = 1\nvalue = -0.8"] ;
647 -> 648 ;
649 [label="TaxiOut <= -0.7\nsquared_error = 0.0\nsamples = 3\nvalue = -0.8"] ;
647 -> 649 ;
650 [label="ActualElapsedTime <= -0.5\nsquared_error = 0.0\nsamples = 2\nvalue = -0.8"] ;
649 -> 650 ;
651 [label="squared_error = 0.0\nsamples = 1\nvalue = -0.8"] ;
650 -> 651 ;
652 [label="squared_error = 0.0\nsamples = 1\nvalue = -0.8"] ;
650 -> 652 ;
653 [label="squared_error = 0.0\nsamples = 1\nvalue = -0.8"] ;
649 -> 653 ;
654 [label="DepTime <= -0.3\nsquared_error = 0.0\nsamples = 4\nvalue = -0.7"] ;
636 -> 654 ;
655 [label="Distance <= 0.1\nsquared_error = 0.0\nsamples = 3\nvalue = -0.7"] ;
654 -> 655 ;
656 [label="ArrTime <= -0.3\nsquared_error = 0.0\nsamples = 2\nvalue = -0.7"] ;
655 -> 656 ;
657 [label="squared_error = 0.0\nsamples = 1\nvalue = -0.7"] ;
656 -> 657 ;
658 [label="squared_error = -0.0\nsamples = 1\nvalue = -0.7"] ;
656 -> 658 ;
659 [label="squared_error = -0.0\nsamples = 1\nvalue = -0.7"] ;
655 -> 659 ;
660 [label="squared_error = 0.0\nsamples = 1\nvalue = -0.8"] ;
654 -> 660 ;
661 [label="ArrTime <= 0.0\nsquared_error = 0.0\nsamples = 11\nvalue = -0.7"] ;
635 -> 661 ;
662 [label="squared_error = 0.0\nsamples = 1\nvalue = -0.5"] ;
661 -> 662 ;
663 [label="TaxiIn <= -0.1\nsquared_error = 0.0\nsamples = 10\nvalue = -0.7"] ;
661 -> 663 ;
664 [label="Distance <= -0.6\nsquared_error = 0.0\nsamples = 9\nvalue = -0.7"] ;
663 -> 664 ;
665 [label="CRSElapsedTime <= -0.8\nsquared_error = 0.0\nsamples = 2\nvalue = -0.7"] ;
664 -> 665 ;
666 [label="squared_error = 0.0\nsamples = 1\nvalue = -0.7"] ;
665 -> 666 ;
667 [label="squared_error = 0.0\nsamples = 1\nvalue = -0.7"] ;
665 -> 667 ;
668 [label="TaxiIn <= -0.4\nsquared_error = 0.0\nsamples = 7\nvalue = -0.8"] ;
664 -> 668 ;
669 [label="Distance <= -0.3\nsquared_error = 0.0\nsamples = 5\nvalue = -0.8"] ;
668 -> 669 ;
670 [label="squared_error = 0.0\nsamples = 2\nvalue = -0.8"] ;
669 -> 670 ;
671 [label="squared_error = 0.0\nsamples = 3\nvalue = -0.8"] ;
669 -> 671 ;
672 [label="TaxiOut <= -0.7\nsquared_error = 0.0\nsamples = 2\nvalue = -0.7"] ;
668 -> 672 ;
673 [label="squared_error = 0.0\nsamples = 1\nvalue = -0.7"] ;
672 -> 673 ;
674 [label="squared_error = -0.0\nsamples = 1\nvalue = -0.7"] ;
672 -> 674 ;
675 [label="squared_error = -0.0\nsamples = 1\nvalue = -0.6"] ;
663 -> 675 ;
676 [label="DayOfWeek <= 6.0\nsquared_error = 0.0\nsamples = 9\nvalue = -0.9"] ;
634 -> 676 ;
677 [label="CRSElapsedTime <= -0.2\nsquared_error = 0.0\nsamples = 6\nvalue = -0.8"] ;
676 -> 677 ;
678 [label="DayOfWeek <= 3.0\nsquared_error = 0.0\nsamples = 3\nvalue = -0.8"] ;
677 -> 678 ;
679 [label="AirTime <= -0.4\nsquared_error = 0.0\nsamples = 2\nvalue = -0.8"] ;
678 -> 679 ;
680 [label="squared_error = 0.0\nsamples = 1\nvalue = -0.8"] ;
679 -> 680 ;
681 [label="squared_error = 0.0\nsamples = 1\nvalue = -0.8"] ;
679 -> 681 ;
682 [label="squared_error = -0.0\nsamples = 1\nvalue = -0.7"] ;
678 -> 682 ;
683 [label="DepDelay <= -0.6\nsquared_error = 0.0\nsamples = 3\nvalue = -0.9"] ;
677 -> 683 ;
684 [label="squared_error = 0.0\nsamples = 1\nvalue = -0.8"] ;
683 -> 684 ;
685 [label="Distance <= -0.0\nsquared_error = 0.0\nsamples = 2\nvalue = -0.9"] ;
683 -> 685 ;
686 [label="squared_error = 0.0\nsamples = 1\nvalue = -0.9"] ;
685 -> 686 ;
687 [label="squared_error = 0.0\nsamples = 1\nvalue = -0.9"] ;
685 -> 687 ;
688 [label="TaxiOut <= -0.8\nsquared_error = 0.0\nsamples = 3\nvalue = -0.9"] ;
676 -> 688 ;
689 [label="squared_error = 0.0\nsamples = 1\nvalue = -0.9"] ;
688 -> 689 ;
690 [label="DepTime <= 0.6\nsquared_error = 0.0\nsamples = 2\nvalue = -1.0"] ;
688 -> 690 ;
691 [label="squared_error = 0.0\nsamples = 1\nvalue = -1.0"] ;
690 -> 691 ;
692 [label="squared_error = 0.0\nsamples = 1\nvalue = -1.0"] ;
690 -> 692 ;
693 [label="CRSDepTime <= 1.5\nsquared_error = 0.0\nsamples = 10\nvalue = -0.7"] ;
601 -> 693 ;
694 [label="CRSArrTime <= 1.1\nsquared_error = 0.0\nsamples = 7\nvalue = -0.6"] ;
693 -> 694 ;
695 [label="DepTime <= 1.3\nsquared_error = 0.0\nsamples = 3\nvalue = -0.7"] ;
694 -> 695 ;
696 [label="DayOfWeek <= 3.5\nsquared_error = 0.0\nsamples = 2\nvalue = -0.7"] ;
695 -> 696 ;
697 [label="squared_error = 0.0\nsamples = 1\nvalue = -0.7"] ;
696 -> 697 ;
698 [label="squared_error = -0.0\nsamples = 1\nvalue = -0.7"] ;
696 -> 698 ;
699 [label="squared_error = 0.0\nsamples = 1\nvalue = -0.6"] ;
695 -> 699 ;
700 [label="ActualElapsedTime <= -0.6\nsquared_error = 0.0\nsamples = 4\nvalue = -0.6"] ;
694 -> 700 ;
701 [label="squared_error = 0.0\nsamples = 1\nvalue = -0.5"] ;
700 -> 701 ;
702 [label="Distance <= -0.3\nsquared_error = 0.0\nsamples = 3\nvalue = -0.6"] ;
700 -> 702 ;
703 [label="squared_error = 0.0\nsamples = 1\nvalue = -0.6"] ;
702 -> 703 ;
704 [label="squared_error = 0.0\nsamples = 2\nvalue = -0.6"] ;
702 -> 704 ;
705 [label="ActualElapsedTime <= -0.5\nsquared_error = 0.0\nsamples = 3\nvalue = -0.8"] ;
693 -> 705 ;
706 [label="ActualElapsedTime <= -1.0\nsquared_error = 0.0\nsamples = 2\nvalue = -0.7"] ;
705 -> 706 ;
707 [label="squared_error = 0.0\nsamples = 1\nvalue = -0.7"] ;
706 -> 707 ;
708 [label="squared_error = -0.0\nsamples = 1\nvalue = -0.7"] ;
706 -> 708 ;
709 [label="squared_error = 0.0\nsamples = 1\nvalue = -0.9"] ;
705 -> 709 ;
710 [label="DepTime <= -0.9\nsquared_error = 0.0\nsamples = 6\nvalue = -0.5"] ;
544 -> 710 ;
711 [label="AirTime <= 0.4\nsquared_error = 0.0\nsamples = 2\nvalue = -0.7"] ;
710 -> 711 ;
712 [label="squared_error = 0.0\nsamples = 1\nvalue = -0.7"] ;
711 -> 712 ;
713 [label="squared_error = 0.0\nsamples = 1\nvalue = -0.6"] ;
711 -> 713 ;
714 [label="Distance <= 0.0\nsquared_error = 0.0\nsamples = 4\nvalue = -0.4"] ;
710 -> 714 ;
715 [label="squared_error = 0.0\nsamples = 1\nvalue = -0.2"] ;
714 -> 715 ;
716 [label="TaxiOut <= -0.7\nsquared_error = 0.0\nsamples = 3\nvalue = -0.5"] ;
714 -> 716 ;
717 [label="squared_error = 0.0\nsamples = 1\nvalue = -0.6"] ;
716 -> 717 ;
718 [label="squared_error = 0.0\nsamples = 2\nvalue = -0.4"] ;
716 -> 718 ;
719 [label="TaxiOut <= -0.8\nsquared_error = 0.0\nsamples = 20\nvalue = -0.8"] ;
543 -> 719 ;
720 [label="DepDelay <= -0.6\nsquared_error = 0.0\nsamples = 6\nvalue = -0.9"] ;
719 -> 720 ;
721 [label="CRSElapsedTime <= 0.5\nsquared_error = 0.0\nsamples = 2\nvalue = -1.0"] ;
720 -> 721 ;
722 [label="squared_error = 0.0\nsamples = 1\nvalue = -1.0"] ;
721 -> 722 ;
723 [label="squared_error = 0.0\nsamples = 1\nvalue = -1.0"] ;
721 -> 723 ;
724 [label="DepTime <= -0.2\nsquared_error = 0.0\nsamples = 4\nvalue = -0.8"] ;
720 -> 724 ;
725 [label="CRSElapsedTime <= 0.5\nsquared_error = 0.0\nsamples = 2\nvalue = -0.7"] ;
724 -> 725 ;
726 [label="squared_error = 0.0\nsamples = 1\nvalue = -0.8"] ;
725 -> 726 ;
727 [label="squared_error = 0.0\nsamples = 1\nvalue = -0.7"] ;
725 -> 727 ;
728 [label="UniqueCarrier_WN <= 0.5\nsquared_error = 0.0\nsamples = 2\nvalue = -0.9"] ;
724 -> 728 ;
729 [label="squared_error = 0.0\nsamples = 1\nvalue = -0.9"] ;
728 -> 729 ;
730 [label="squared_error = 0.0\nsamples = 1\nvalue = -0.9"] ;
728 -> 730 ;
731 [label="AirTime <= 0.7\nsquared_error = 0.0\nsamples = 14\nvalue = -0.8"] ;
719 -> 731 ;
732 [label="Distance <= 0.5\nsquared_error = 0.0\nsamples = 12\nvalue = -0.8"] ;
731 -> 732 ;
733 [label="TaxiIn <= 0.3\nsquared_error = 0.0\nsamples = 10\nvalue = -0.8"] ;
732 -> 733 ;
734 [label="CRSElapsedTime <= 0.3\nsquared_error = 0.0\nsamples = 9\nvalue = -0.8"] ;
733 -> 734 ;
735 [label="TaxiOut <= -0.7\nsquared_error = 0.0\nsamples = 3\nvalue = -0.7"] ;
734 -> 735 ;
736 [label="squared_error = 0.0\nsamples = 1\nvalue = -0.7"] ;
735 -> 736 ;
737 [label="CRSDepTime <= -1.1\nsquared_error = 0.0\nsamples = 2\nvalue = -0.7"] ;
735 -> 737 ;
738 [label="squared_error = 0.0\nsamples = 1\nvalue = -0.7"] ;
737 -> 738 ;
739 [label="squared_error = 0.0\nsamples = 1\nvalue = -0.8"] ;
737 -> 739 ;
740 [label="Distance <= 0.5\nsquared_error = 0.0\nsamples = 6\nvalue = -0.8"] ;
734 -> 740 ;
741 [label="CRSDepTime <= -1.7\nsquared_error = 0.0\nsamples = 5\nvalue = -0.8"] ;
740 -> 741 ;
742 [label="squared_error = 0.0\nsamples = 1\nvalue = -0.8"] ;
741 -> 742 ;
743 [label="TaxiIn <= -0.2\nsquared_error = 0.0\nsamples = 4\nvalue = -0.8"] ;
741 -> 743 ;
744 [label="AirTime <= 0.5\nsquared_error = 0.0\nsamples = 3\nvalue = -0.8"] ;
743 -> 744 ;
745 [label="squared_error = 0.0\nsamples = 1\nvalue = -0.8"] ;
744 -> 745 ;
746 [label="squared_error = 0.0\nsamples = 2\nvalue = -0.8"] ;
744 -> 746 ;
747 [label="squared_error = 0.0\nsamples = 1\nvalue = -0.8"] ;
743 -> 747 ;
748 [label="squared_error = -0.0\nsamples = 1\nvalue = -0.7"] ;
740 -> 748 ;
749 [label="squared_error = 0.0\nsamples = 1\nvalue = -0.9"] ;
733 -> 749 ;
750 [label="Distance <= 0.7\nsquared_error = 0.0\nsamples = 2\nvalue = -0.9"] ;
732 -> 750 ;
751 [label="squared_error = 0.0\nsamples = 1\nvalue = -1.0"] ;
750 -> 751 ;
752 [label="squared_error = -0.0\nsamples = 1\nvalue = -0.8"] ;
750 -> 752 ;
753 [label="TaxiOut <= -0.7\nsquared_error = 0.0\nsamples = 2\nvalue = -0.6"] ;
731 -> 753 ;
754 [label="squared_error = 0.0\nsamples = 1\nvalue = -0.6"] ;
753 -> 754 ;
755 [label="squared_error = 0.0\nsamples = 1\nvalue = -0.6"] ;
753 -> 755 ;
756 [label="TaxiIn <= 0.5\nsquared_error = 0.0\nsamples = 632\nvalue = -0.7"] ;
10 -> 756 ;
757 [label="CRSElapsedTime <= -0.9\nsquared_error = 0.0\nsamples = 568\nvalue = -0.7"] ;
756 -> 757 ;
758 [label="AirTime <= -0.5\nsquared_error = 0.0\nsamples = 119\nvalue = -0.7"] ;
757 -> 758 ;
759 [label="ActualElapsedTime <= -0.9\nsquared_error = 0.0\nsamples = 118\nvalue = -0.7"] ;
758 -> 759 ;
760 [label="CRSElapsedTime <= -1.3\nsquared_error = 0.0\nsamples = 105\nvalue = -0.7"] ;
759 -> 760 ;
761 [label="ActualElapsedTime <= -1.3\nsquared_error = 0.0\nsamples = 6\nvalue = -0.5"] ;
760 -> 761 ;
762 [label="DepDelay <= -0.6\nsquared_error = 0.0\nsamples = 4\nvalue = -0.6"] ;
761 -> 762 ;
763 [label="ActualElapsedTime <= -1.3\nsquared_error = 0.0\nsamples = 3\nvalue = -0.6"] ;
762 -> 763 ;
764 [label="UniqueCarrier_OH <= 0.5\nsquared_error = 0.0\nsamples = 2\nvalue = -0.6"] ;
763 -> 764 ;
765 [label="squared_error = 0.0\nsamples = 1\nvalue = -0.6"] ;
764 -> 765 ;
766 [label="squared_error = -0.0\nsamples = 1\nvalue = -0.6"] ;
764 -> 766 ;
767 [label="squared_error = -0.0\nsamples = 1\nvalue = -0.6"] ;
763 -> 767 ;
768 [label="squared_error = -0.0\nsamples = 1\nvalue = -0.5"] ;
762 -> 768 ;
769 [label="TaxiIn <= -0.2\nsquared_error = 0.0\nsamples = 2\nvalue = -0.4"] ;
761 -> 769 ;
770 [label="squared_error = 0.0\nsamples = 1\nvalue = -0.5"] ;
769 -> 770 ;
771 [label="squared_error = -0.0\nsamples = 1\nvalue = -0.4"] ;
769 -> 771 ;
772 [label="AirTime <= -1.0\nsquared_error = 0.0\nsamples = 99\nvalue = -0.7"] ;
760 -> 772 ;
773 [label="CRSElapsedTime <= -1.1\nsquared_error = 0.0\nsamples = 58\nvalue = -0.7"] ;
772 -> 773 ;
774 [label="ActualElapsedTime <= -1.2\nsquared_error = 0.0\nsamples = 30\nvalue = -0.7"] ;
773 -> 774 ;
775 [label="TaxiOut <= -0.4\nsquared_error = 0.0\nsamples = 10\nvalue = -0.8"] ;
774 -> 775 ;
776 [label="CRSArrTime <= -1.0\nsquared_error = 0.0\nsamples = 5\nvalue = -0.8"] ;
775 -> 776 ;
777 [label="squared_error = 0.0\nsamples = 1\nvalue = -0.9"] ;
776 -> 777 ;
778 [label="CRSDepTime <= 1.2\nsquared_error = 0.0\nsamples = 4\nvalue = -0.8"] ;
776 -> 778 ;
779 [label="squared_error = 0.0\nsamples = 3\nvalue = -0.8"] ;
778 -> 779 ;
780 [label="squared_error = -0.0\nsamples = 1\nvalue = -0.8"] ;
778 -> 780 ;
781 [label="CRSElapsedTime <= -1.2\nsquared_error = 0.0\nsamples = 5\nvalue = -0.7"] ;
775 -> 781 ;
782 [label="CRSElapsedTime <= -1.3\nsquared_error = 0.0\nsamples = 3\nvalue = -0.7"] ;
781 -> 782 ;
783 [label="TaxiIn <= -0.7\nsquared_error = 0.0\nsamples = 2\nvalue = -0.7"] ;
782 -> 783 ;
784 [label="squared_error = 0.0\nsamples = 1\nvalue = -0.7"] ;
783 -> 784 ;
785 [label="squared_error = 0.0\nsamples = 1\nvalue = -0.7"] ;
783 -> 785 ;
786 [label="squared_error = -0.0\nsamples = 1\nvalue = -0.6"] ;
782 -> 786 ;
787 [label="Distance <= -1.1\nsquared_error = 0.0\nsamples = 2\nvalue = -0.8"] ;
781 -> 787 ;
788 [label="squared_error = 0.0\nsamples = 1\nvalue = -0.7"] ;
787 -> 788 ;
789 [label="squared_error = 0.0\nsamples = 1\nvalue = -0.8"] ;
787 -> 789 ;
790 [label="CRSElapsedTime <= -1.2\nsquared_error = 0.0\nsamples = 20\nvalue = -0.6"] ;
774 -> 790 ;
791 [label="Distance <= -1.0\nsquared_error = 0.0\nsamples = 7\nvalue = -0.6"] ;
790 -> 791 ;
792 [label="DepDelay <= -0.7\nsquared_error = 0.0\nsamples = 6\nvalue = -0.6"] ;
791 -> 792 ;
793 [label="squared_error = 0.0\nsamples = 2\nvalue = -0.6"] ;
792 -> 793 ;
794 [label="DayOfWeek <= 2.5\nsquared_error = 0.0\nsamples = 4\nvalue = -0.6"] ;
792 -> 794 ;
795 [label="squared_error = -0.0\nsamples = 1\nvalue = -0.6"] ;
794 -> 795 ;
796 [label="DepTime <= 0.6\nsquared_error = 0.0\nsamples = 3\nvalue = -0.6"] ;
794 -> 796 ;
797 [label="squared_error = -0.0\nsamples = 2\nvalue = -0.6"] ;
796 -> 797 ;
798 [label="squared_error = 0.0\nsamples = 1\nvalue = -0.6"] ;
796 -> 798 ;
799 [label="squared_error = 0.0\nsamples = 1\nvalue = -0.5"] ;
791 -> 799 ;
800 [label="ActualElapsedTime <= -1.1\nsquared_error = 0.0\nsamples = 13\nvalue = -0.7"] ;
790 -> 800 ;
801 [label="DepDelay <= -0.7\nsquared_error = 0.0\nsamples = 5\nvalue = -0.7"] ;
800 -> 801 ;
802 [label="AirTime <= -1.2\nsquared_error = 0.0\nsamples = 2\nvalue = -0.8"] ;
801 -> 802 ;
803 [label="squared_error = 0.0\nsamples = 1\nvalue = -0.8"] ;
802 -> 803 ;
804 [label="squared_error = 0.0\nsamples = 1\nvalue = -0.7"] ;
802 -> 804 ;
805 [label="TaxiIn <= -0.2\nsquared_error = 0.0\nsamples = 3\nvalue = -0.7"] ;
801 -> 805 ;
806 [label="squared_error = -0.0\nsamples = 2\nvalue = -0.7"] ;
805 -> 806 ;
807 [label="squared_error = 0.0\nsamples = 1\nvalue = -0.7"] ;
805 -> 807 ;
808 [label="ActualElapsedTime <= -1.0\nsquared_error = 0.0\nsamples = 8\nvalue = -0.6"] ;
800 -> 808 ;
809 [label="CRSDepTime <= 0.1\nsquared_error = 0.0\nsamples = 7\nvalue = -0.6"] ;
808 -> 809 ;
810 [label="squared_error = 0.0\nsamples = 3\nvalue = -0.6"] ;
809 -> 810 ;
811 [label="Distance <= -1.1\nsquared_error = 0.0\nsamples = 4\nvalue = -0.7"] ;
809 -> 811 ;
812 [label="TaxiIn <= -0.6\nsquared_error = 0.0\nsamples = 2\nvalue = -0.7"] ;
811 -> 812 ;
813 [label="squared_error = 0.0\nsamples = 1\nvalue = -0.7"] ;
812 -> 813 ;
814 [label="squared_error = 0.0\nsamples = 1\nvalue = -0.7"] ;
812 -> 814 ;
815 [label="Distance <= -1.0\nsquared_error = 0.0\nsamples = 2\nvalue = -0.6"] ;
811 -> 815 ;
816 [label="squared_error = 0.0\nsamples = 1\nvalue = -0.6"] ;
815 -> 816 ;
817 [label="squared_error = 0.0\nsamples = 1\nvalue = -0.6"] ;
815 -> 817 ;
818 [label="squared_error = -0.0\nsamples = 1\nvalue = -0.6"] ;
808 -> 818 ;
819 [label="ActualElapsedTime <= -1.1\nsquared_error = 0.0\nsamples = 28\nvalue = -0.8"] ;
773 -> 819 ;
820 [label="AirTime <= -1.1\nsquared_error = 0.0\nsamples = 6\nvalue = -0.9"] ;
819 -> 820 ;
821 [label="AirTime <= -1.2\nsquared_error = 0.0\nsamples = 4\nvalue = -0.9"] ;
820 -> 821 ;
822 [label="AirTime <= -1.2\nsquared_error = 0.0\nsamples = 2\nvalue = -0.9"] ;
821 -> 822 ;
823 [label="squared_error = 0.0\nsamples = 1\nvalue = -0.9"] ;
822 -> 823 ;
824 [label="squared_error = -0.0\nsamples = 1\nvalue = -0.9"] ;
822 -> 824 ;
825 [label="squared_error = -0.0\nsamples = 2\nvalue = -0.9"] ;
821 -> 825 ;
826 [label="squared_error = 0.0\nsamples = 2\nvalue = -0.9"] ;
820 -> 826 ;
827 [label="ActualElapsedTime <= -1.1\nsquared_error = 0.0\nsamples = 22\nvalue = -0.8"] ;
819 -> 827 ;
828 [label="CRSElapsedTime <= -1.0\nsquared_error = 0.0\nsamples = 9\nvalue = -0.8"] ;
827 -> 828 ;
829 [label="DepDelay <= -0.7\nsquared_error = 0.0\nsamples = 6\nvalue = -0.8"] ;
828 -> 829 ;
830 [label="squared_error = 0.0\nsamples = 1\nvalue = -0.8"] ;
829 -> 830 ;
831 [label="TaxiOut <= -0.3\nsquared_error = 0.0\nsamples = 5\nvalue = -0.7"] ;
829 -> 831 ;
832 [label="squared_error = 0.0\nsamples = 3\nvalue = -0.8"] ;
831 -> 832 ;
833 [label="UniqueCarrier_US <= 0.5\nsquared_error = 0.0\nsamples = 2\nvalue = -0.7"] ;
831 -> 833 ;
834 [label="squared_error = 0.0\nsamples = 1\nvalue = -0.7"] ;
833 -> 834 ;
835 [label="squared_error = -0.0\nsamples = 1\nvalue = -0.7"] ;
833 -> 835 ;
836 [label="AirTime <= -1.1\nsquared_error = 0.0\nsamples = 3\nvalue = -0.9"] ;
828 -> 836 ;
837 [label="UniqueCarrier_YV <= 0.5\nsquared_error = 0.0\nsamples = 2\nvalue = -0.8"] ;
836 -> 837 ;
838 [label="squared_error = 0.0\nsamples = 1\nvalue = -0.8"] ;
837 -> 838 ;
839 [label="squared_error = -0.0\nsamples = 1\nvalue = -0.8"] ;
837 -> 839 ;
840 [label="squared_error = -0.0\nsamples = 1\nvalue = -0.9"] ;
836 -> 840 ;
841 [label="UniqueCarrier_OO <= 0.5\nsquared_error = 0.0\nsamples = 13\nvalue = -0.7"] ;
827 -> 841 ;
842 [label="DepDelay <= -0.7\nsquared_error = 0.0\nsamples = 12\nvalue = -0.7"] ;
841 -> 842 ;
843 [label="DepTime <= -0.6\nsquared_error = 0.0\nsamples = 3\nvalue = -0.8"] ;
842 -> 843 ;
844 [label="squared_error = -0.0\nsamples = 1\nvalue = -0.8"] ;
843 -> 844 ;
845 [label="squared_error = -0.0\nsamples = 2\nvalue = -0.8"] ;
843 -> 845 ;
846 [label="ActualElapsedTime <= -1.1\nsquared_error = 0.0\nsamples = 9\nvalue = -0.7"] ;
842 -> 846 ;
847 [label="squared_error = 0.0\nsamples = 3\nvalue = -0.7"] ;
846 -> 847 ;
848 [label="UniqueCarrier_FL <= 0.5\nsquared_error = 0.0\nsamples = 6\nvalue = -0.7"] ;
846 -> 848 ;
849 [label="CRSDepTime <= 0.4\nsquared_error = 0.0\nsamples = 5\nvalue = -0.7"] ;
848 -> 849 ;
850 [label="squared_error = 0.0\nsamples = 2\nvalue = -0.7"] ;
849 -> 850 ;
851 [label="CRSDepTime <= 1.4\nsquared_error = 0.0\nsamples = 3\nvalue = -0.7"] ;
849 -> 851 ;
852 [label="squared_error = 0.0\nsamples = 2\nvalue = -0.7"] ;
851 -> 852 ;
853 [label="squared_error = 0.0\nsamples = 1\nvalue = -0.7"] ;
851 -> 853 ;
854 [label="squared_error = 0.0\nsamples = 1\nvalue = -0.8"] ;
848 -> 854 ;
855 [label="squared_error = -0.0\nsamples = 1\nvalue = -0.6"] ;
841 -> 855 ;
856 [label="CRSElapsedTime <= -0.9\nsquared_error = 0.0\nsamples = 41\nvalue = -0.6"] ;
772 -> 856 ;
857 [label="DepDelay <= -0.6\nsquared_error = 0.0\nsamples = 26\nvalue = -0.6"] ;
856 -> 857 ;
858 [label="CRSElapsedTime <= -1.0\nsquared_error = 0.0\nsamples = 22\nvalue = -0.6"] ;
857 -> 858 ;
859 [label="CRSArrTime <= 0.8\nsquared_error = 0.0\nsamples = 9\nvalue = -0.6"] ;
858 -> 859 ;
860 [label="DepTime <= 0.2\nsquared_error = 0.0\nsamples = 7\nvalue = -0.6"] ;
859 -> 860 ;
861 [label="CRSDepTime <= 0.0\nsquared_error = 0.0\nsamples = 4\nvalue = -0.6"] ;
860 -> 861 ;
862 [label="CRSDepTime <= -0.6\nsquared_error = 0.0\nsamples = 3\nvalue = -0.6"] ;
861 -> 862 ;
863 [label="ArrTime <= -1.0\nsquared_error = 0.0\nsamples = 2\nvalue = -0.6"] ;
862 -> 863 ;
864 [label="squared_error = 0.0\nsamples = 1\nvalue = -0.6"] ;
863 -> 864 ;
865 [label="squared_error = -0.0\nsamples = 1\nvalue = -0.6"] ;
863 -> 865 ;
866 [label="squared_error = 0.0\nsamples = 1\nvalue = -0.6"] ;
862 -> 866 ;
867 [label="squared_error = -0.0\nsamples = 1\nvalue = -0.7"] ;
861 -> 867 ;
868 [label="squared_error = 0.0\nsamples = 3\nvalue = -0.6"] ;
860 -> 868 ;
869 [label="ActualElapsedTime <= -1.0\nsquared_error = 0.0\nsamples = 2\nvalue = -0.6"] ;
859 -> 869 ;
870 [label="squared_error = 0.0\nsamples = 1\nvalue = -0.5"] ;
869 -> 870 ;
871 [label="squared_error = -0.0\nsamples = 1\nvalue = -0.6"] ;
869 -> 871 ;
872 [label="ActualElapsedTime <= -1.0\nsquared_error = 0.0\nsamples = 13\nvalue = -0.6"] ;
858 -> 872 ;
873 [label="UniqueCarrier_MQ <= 0.5\nsquared_error = 0.0\nsamples = 8\nvalue = -0.7"] ;
872 -> 873 ;
874 [label="ArrTime <= -0.0\nsquared_error = 0.0\nsamples = 7\nvalue = -0.7"] ;
873 -> 874 ;
875 [label="DayOfWeek <= 6.5\nsquared_error = 0.0\nsamples = 3\nvalue = -0.7"] ;
874 -> 875 ;
876 [label="squared_error = 0.0\nsamples = 2\nvalue = -0.7"] ;
875 -> 876 ;
877 [label="squared_error = -0.0\nsamples = 1\nvalue = -0.7"] ;
875 -> 877 ;
878 [label="TaxiOut <= -0.4\nsquared_error = 0.0\nsamples = 4\nvalue = -0.7"] ;
874 -> 878 ;
879 [label="squared_error = 0.0\nsamples = 2\nvalue = -0.7"] ;
878 -> 879 ;
880 [label="squared_error = -0.0\nsamples = 2\nvalue = -0.6"] ;
878 -> 880 ;
881 [label="squared_error = 0.0\nsamples = 1\nvalue = -0.7"] ;
873 -> 881 ;
882 [label="TaxiOut <= -0.2\nsquared_error = 0.0\nsamples = 5\nvalue = -0.6"] ;
872 -> 882 ;
883 [label="TaxiIn <= -0.2\nsquared_error = 0.0\nsamples = 3\nvalue = -0.6"] ;
882 -> 883 ;
884 [label="squared_error = 0.0\nsamples = 2\nvalue = -0.6"] ;
883 -> 884 ;
885 [label="squared_error = -0.0\nsamples = 1\nvalue = -0.6"] ;
883 -> 885 ;
886 [label="DepDelay <= -0.7\nsquared_error = 0.0\nsamples = 2\nvalue = -0.6"] ;
882 -> 886 ;
887 [label="squared_error = 0.0\nsamples = 1\nvalue = -0.6"] ;
886 -> 887 ;
888 [label="squared_error = -0.0\nsamples = 1\nvalue = -0.6"] ;
886 -> 888 ;
889 [label="CRSArrTime <= -1.0\nsquared_error = 0.0\nsamples = 4\nvalue = -0.5"] ;
857 -> 889 ;
890 [label="squared_error = 0.0\nsamples = 1\nvalue = -0.5"] ;
889 -> 890 ;
891 [label="CRSDepTime <= -0.1\nsquared_error = 0.0\nsamples = 3\nvalue = -0.5"] ;
889 -> 891 ;
892 [label="squared_error = 0.0\nsamples = 1\nvalue = -0.5"] ;
891 -> 892 ;
893 [label="squared_error = 0.0\nsamples = 2\nvalue = -0.5"] ;
891 -> 893 ;
894 [label="ActualElapsedTime <= -0.9\nsquared_error = 0.0\nsamples = 15\nvalue = -0.7"] ;
856 -> 894 ;
895 [label="DepDelay <= -0.7\nsquared_error = 0.0\nsamples = 9\nvalue = -0.8"] ;
894 -> 895 ;
896 [label="Distance <= -0.9\nsquared_error = 0.0\nsamples = 4\nvalue = -0.8"] ;
895 -> 896 ;
897 [label="squared_error = 0.0\nsamples = 1\nvalue = -0.8"] ;
896 -> 897 ;
898 [label="Distance <= -0.8\nsquared_error = 0.0\nsamples = 3\nvalue = -0.8"] ;
896 -> 898 ;
899 [label="squared_error = 0.0\nsamples = 1\nvalue = -0.8"] ;
898 -> 899 ;
900 [label="squared_error = 0.0\nsamples = 2\nvalue = -0.8"] ;
898 -> 900 ;
901 [label="ActualElapsedTime <= -1.0\nsquared_error = 0.0\nsamples = 5\nvalue = -0.7"] ;
895 -> 901 ;
902 [label="squared_error = 0.0\nsamples = 1\nvalue = -0.8"] ;
901 -> 902 ;
903 [label="DepDelay <= -0.7\nsquared_error = 0.0\nsamples = 4\nvalue = -0.7"] ;
901 -> 903 ;
904 [label="squared_error = 0.0\nsamples = 1\nvalue = -0.7"] ;
903 -> 904 ;
905 [label="UniqueCarrier_DL <= 0.5\nsquared_error = 0.0\nsamples = 3\nvalue = -0.7"] ;
903 -> 905 ;
906 [label="squared_error = 0.0\nsamples = 2\nvalue = -0.7"] ;
905 -> 906 ;
907 [label="squared_error = 0.0\nsamples = 1\nvalue = -0.7"] ;
905 -> 907 ;
908 [label="DepTime <= 0.1\nsquared_error = 0.0\nsamples = 6\nvalue = -0.7"] ;
894 -> 908 ;
909 [label="squared_error = 0.0\nsamples = 5\nvalue = -0.7"] ;
908 -> 909 ;
910 [label="squared_error = -0.0\nsamples = 1\nvalue = -0.7"] ;
908 -> 910 ;
911 [label="CRSElapsedTime <= -1.0\nsquared_error = 0.0\nsamples = 13\nvalue = -0.5"] ;
759 -> 911 ;
912 [label="squared_error = 0.0\nsamples = 2\nvalue = -0.5"] ;
911 -> 912 ;
913 [label="ActualElapsedTime <= -0.8\nsquared_error = 0.0\nsamples = 11\nvalue = -0.6"] ;
911 -> 913 ;
914 [label="ArrTime <= -0.9\nsquared_error = 0.0\nsamples = 9\nvalue = -0.6"] ;
913 -> 914 ;
915 [label="squared_error = 0.0\nsamples = 1\nvalue = -0.6"] ;
914 -> 915 ;
916 [label="ArrTime <= 0.3\nsquared_error = 0.0\nsamples = 8\nvalue = -0.6"] ;
914 -> 916 ;
917 [label="CRSArrTime <= 0.2\nsquared_error = 0.0\nsamples = 4\nvalue = -0.6"] ;
916 -> 917 ;
918 [label="TaxiOut <= -0.0\nsquared_error = 0.0\nsamples = 3\nvalue = -0.6"] ;
917 -> 918 ;
919 [label="squared_error = 0.0\nsamples = 2\nvalue = -0.6"] ;
918 -> 919 ;
920 [label="squared_error = -0.0\nsamples = 1\nvalue = -0.6"] ;
918 -> 920 ;
921 [label="squared_error = 0.0\nsamples = 1\nvalue = -0.5"] ;
917 -> 921 ;
922 [label="DepDelay <= -0.7\nsquared_error = 0.0\nsamples = 4\nvalue = -0.6"] ;
916 -> 922 ;
923 [label="squared_error = 0.0\nsamples = 1\nvalue = -0.6"] ;
922 -> 923 ;
924 [label="squared_error = -0.0\nsamples = 3\nvalue = -0.6"] ;
922 -> 924 ;
925 [label="CRSArrTime <= -1.2\nsquared_error = 0.0\nsamples = 2\nvalue = -0.5"] ;
913 -> 925 ;
926 [label="squared_error = 0.0\nsamples = 1\nvalue = -0.5"] ;
925 -> 926 ;
927 [label="squared_error = -0.0\nsamples = 1\nvalue = -0.5"] ;
925 -> 927 ;
928 [label="squared_error = -0.0\nsamples = 1\nvalue = 0.1"] ;
758 -> 928 ;
929 [label="AirTime <= 0.5\nsquared_error = 0.0\nsamples = 449\nvalue = -0.7"] ;
757 -> 929 ;
930 [label="CRSElapsedTime <= 0.4\nsquared_error = 0.0\nsamples = 371\nvalue = -0.8"] ;
929 -> 930 ;
931 [label="ActualElapsedTime <= -0.9\nsquared_error = 0.0\nsamples = 351\nvalue = -0.7"] ;
930 -> 931 ;
932 [label="CRSElapsedTime <= -0.8\nsquared_error = 0.0\nsamples = 30\nvalue = -0.9"] ;
931 -> 932 ;
933 [label="ActualElapsedTime <= -1.0\nsquared_error = 0.0\nsamples = 20\nvalue = -0.8"] ;
932 -> 933 ;
934 [label="DepDelay <= -0.7\nsquared_error = 0.0\nsamples = 6\nvalue = -0.9"] ;
933 -> 934 ;
935 [label="Distance <= -0.9\nsquared_error = 0.0\nsamples = 3\nvalue = -0.9"] ;
934 -> 935 ;
936 [label="squared_error = 0.0\nsamples = 2\nvalue = -0.9"] ;
935 -> 936 ;
937 [label="squared_error = 0.0\nsamples = 1\nvalue = -0.9"] ;
935 -> 937 ;
938 [label="TaxiIn <= -0.5\nsquared_error = 0.0\nsamples = 3\nvalue = -0.8"] ;
934 -> 938 ;
939 [label="squared_error = -0.0\nsamples = 1\nvalue = -0.9"] ;
938 -> 939 ;
940 [label="TaxiIn <= -0.2\nsquared_error = 0.0\nsamples = 2\nvalue = -0.8"] ;
938 -> 940 ;
941 [label="squared_error = 0.0\nsamples = 1\nvalue = -0.8"] ;
940 -> 941 ;
942 [label="squared_error = -0.0\nsamples = 1\nvalue = -0.8"] ;
940 -> 942 ;
943 [label="CRSElapsedTime <= -0.8\nsquared_error = 0.0\nsamples = 14\nvalue = -0.8"] ;
933 -> 943 ;
944 [label="DepDelay <= -0.7\nsquared_error = 0.0\nsamples = 8\nvalue = -0.7"] ;
943 -> 944 ;
945 [label="squared_error = -0.0\nsamples = 2\nvalue = -0.8"] ;
944 -> 945 ;
946 [label="TaxiIn <= -0.4\nsquared_error = 0.0\nsamples = 6\nvalue = -0.7"] ;
944 -> 946 ;
947 [label="ActualElapsedTime <= -0.9\nsquared_error = 0.0\nsamples = 3\nvalue = -0.7"] ;
946 -> 947 ;
948 [label="squared_error = 0.0\nsamples = 1\nvalue = -0.7"] ;
947 -> 948 ;
949 [label="DayOfWeek <= 4.5\nsquared_error = 0.0\nsamples = 2\nvalue = -0.7"] ;
947 -> 949 ;
950 [label="squared_error = 0.0\nsamples = 1\nvalue = -0.7"] ;
949 -> 950 ;
951 [label="squared_error = 0.0\nsamples = 1\nvalue = -0.7"] ;
949 -> 951 ;
952 [label="squared_error = 0.0\nsamples = 3\nvalue = -0.7"] ;
946 -> 952 ;
953 [label="DepTime <= -1.3\nsquared_error = 0.0\nsamples = 6\nvalue = -0.8"] ;
943 -> 953 ;
954 [label="DayOfWeek <= 1.5\nsquared_error = 0.0\nsamples = 3\nvalue = -0.8"] ;
953 -> 954 ;
955 [label="squared_error = 0.0\nsamples = 1\nvalue = -0.8"] ;
954 -> 955 ;
956 [label="squared_error = 0.0\nsamples = 2\nvalue = -0.7"] ;
954 -> 956 ;
957 [label="ArrTime <= -0.5\nsquared_error = 0.0\nsamples = 3\nvalue = -0.8"] ;
953 -> 957 ;
958 [label="squared_error = 0.0\nsamples = 1\nvalue = -0.8"] ;
957 -> 958 ;
959 [label="squared_error = 0.0\nsamples = 2\nvalue = -0.8"] ;
957 -> 959 ;
960 [label="ArrTime <= 0.2\nsquared_error = 0.0\nsamples = 10\nvalue = -0.9"] ;
932 -> 960 ;
961 [label="DayOfWeek <= 6.5\nsquared_error = 0.0\nsamples = 3\nvalue = -1.1"] ;
960 -> 961 ;
962 [label="ActualElapsedTime <= -1.0\nsquared_error = 0.0\nsamples = 2\nvalue = -1.1"] ;
961 -> 962 ;
963 [label="squared_error = 0.0\nsamples = 1\nvalue = -1.1"] ;
962 -> 963 ;
964 [label="squared_error = 0.0\nsamples = 1\nvalue = -1.1"] ;
962 -> 964 ;
965 [label="squared_error = -0.0\nsamples = 1\nvalue = -0.9"] ;
961 -> 965 ;
966 [label="UniqueCarrier_WN <= 0.5\nsquared_error = 0.0\nsamples = 7\nvalue = -0.9"] ;
960 -> 966 ;
967 [label="DepDelay <= -0.7\nsquared_error = 0.0\nsamples = 5\nvalue = -0.9"] ;
966 -> 967 ;
968 [label="squared_error = 0.0\nsamples = 2\nvalue = -0.9"] ;
967 -> 968 ;
969 [label="TaxiOut <= -0.5\nsquared_error = 0.0\nsamples = 3\nvalue = -0.9"] ;
967 -> 969 ;
970 [label="squared_error = 0.0\nsamples = 1\nvalue = -0.9"] ;
969 -> 970 ;
971 [label="squared_error = 0.0\nsamples = 2\nvalue = -0.9"] ;
969 -> 971 ;
972 [label="AirTime <= -0.8\nsquared_error = 0.0\nsamples = 2\nvalue = -1.0"] ;
966 -> 972 ;
973 [label="squared_error = 0.0\nsamples = 1\nvalue = -0.9"] ;
972 -> 973 ;
974 [label="squared_error = 0.0\nsamples = 1\nvalue = -1.0"] ;
972 -> 974 ;
975 [label="CRSElapsedTime <= -0.5\nsquared_error = 0.0\nsamples = 321\nvalue = -0.7"] ;
931 -> 975 ;
976 [label="AirTime <= -0.6\nsquared_error = 0.0\nsamples = 96\nvalue = -0.7"] ;
975 -> 976 ;
977 [label="CRSElapsedTime <= -0.8\nsquared_error = 0.0\nsamples = 64\nvalue = -0.7"] ;
976 -> 977 ;
978 [label="ActualElapsedTime <= -0.7\nsquared_error = 0.0\nsamples = 14\nvalue = -0.6"] ;
977 -> 978 ;
979 [label="CRSDepTime <= -1.4\nsquared_error = 0.0\nsamples = 12\nvalue = -0.7"] ;
978 -> 979 ;
980 [label="squared_error = 0.0\nsamples = 1\nvalue = -0.8"] ;
979 -> 980 ;
981 [label="ActualElapsedTime <= -0.8\nsquared_error = 0.0\nsamples = 11\nvalue = -0.6"] ;
979 -> 981 ;
982 [label="DepDelay <= -0.7\nsquared_error = 0.0\nsamples = 8\nvalue = -0.7"] ;
981 -> 982 ;
983 [label="DepTime <= -0.3\nsquared_error = 0.0\nsamples = 2\nvalue = -0.7"] ;
982 -> 983 ;
984 [label="squared_error = 0.0\nsamples = 1\nvalue = -0.7"] ;
983 -> 984 ;
985 [label="squared_error = 0.0\nsamples = 1\nvalue = -0.7"] ;
983 -> 985 ;
986 [label="CRSArrTime <= -0.5\nsquared_error = 0.0\nsamples = 6\nvalue = -0.6"] ;
982 -> 986 ;
987 [label="UniqueCarrier_OO <= 0.5\nsquared_error = 0.0\nsamples = 3\nvalue = -0.6"] ;
986 -> 987 ;
988 [label="CRSDepTime <= -1.0\nsquared_error = 0.0\nsamples = 2\nvalue = -0.6"] ;
987 -> 988 ;
989 [label="squared_error = 0.0\nsamples = 1\nvalue = -0.6"] ;
988 -> 989 ;
990 [label="squared_error = 0.0\nsamples = 1\nvalue = -0.6"] ;
988 -> 990 ;
991 [label="squared_error = -0.0\nsamples = 1\nvalue = -0.6"] ;
987 -> 991 ;
992 [label="DepTime <= 0.6\nsquared_error = 0.0\nsamples = 3\nvalue = -0.7"] ;
986 -> 992 ;
993 [label="squared_error = -0.0\nsamples = 2\nvalue = -0.6"] ;
992 -> 993 ;
994 [label="squared_error = 0.0\nsamples = 1\nvalue = -0.7"] ;
992 -> 994 ;
995 [label="UniqueCarrier_YV <= 0.5\nsquared_error = 0.0\nsamples = 3\nvalue = -0.6"] ;
981 -> 995 ;
996 [label="squared_error = 0.0\nsamples = 2\nvalue = -0.6"] ;
995 -> 996 ;
997 [label="squared_error = -0.0\nsamples = 1\nvalue = -0.6"] ;
995 -> 997 ;
998 [label="UniqueCarrier_F9 <= 0.5\nsquared_error = 0.0\nsamples = 2\nvalue = -0.5"] ;
978 -> 998 ;
999 [label="squared_error = 0.0\nsamples = 1\nvalue = -0.5"] ;
998 -> 999 ;
1000 [label="squared_error = 0.0\nsamples = 1\nvalue = -0.4"] ;
998 -> 1000 ;
1001 [label="ActualElapsedTime <= -0.8\nsquared_error = 0.0\nsamples = 50\nvalue = -0.8"] ;
977 -> 1001 ;
1002 [label="CRSElapsedTime <= -0.7\nsquared_error = 0.0\nsamples = 23\nvalue = -0.8"] ;
1001 -> 1002 ;
1003 [label="CRSElapsedTime <= -0.7\nsquared_error = 0.0\nsamples = 21\nvalue = -0.8"] ;
1002 -> 1003 ;
1004 [label="DepDelay <= -0.7\nsquared_error = 0.0\nsamples = 16\nvalue = -0.8"] ;
1003 -> 1004 ;
1005 [label="AirTime <= -0.8\nsquared_error = 0.0\nsamples = 11\nvalue = -0.8"] ;
1004 -> 1005 ;
1006 [label="squared_error = 0.0\nsamples = 1\nvalue = -0.7"] ;
1005 -> 1006 ;
1007 [label="AirTime <= -0.8\nsquared_error = 0.0\nsamples = 10\nvalue = -0.8"] ;
1005 -> 1007 ;
1008 [label="squared_error = 0.0\nsamples = 2\nvalue = -0.8"] ;
1007 -> 1008 ;
1009 [label="ActualElapsedTime <= -0.8\nsquared_error = 0.0\nsamples = 8\nvalue = -0.8"] ;
1007 -> 1009 ;
1010 [label="squared_error = -0.0\nsamples = 3\nvalue = -0.8"] ;
1009 -> 1010 ;
1011 [label="UniqueCarrier_NW <= 0.5\nsquared_error = 0.0\nsamples = 5\nvalue = -0.8"] ;
1009 -> 1011 ;
1012 [label="squared_error = -0.0\nsamples = 4\nvalue = -0.8"] ;
1011 -> 1012 ;
1013 [label="squared_error = 0.0\nsamples = 1\nvalue = -0.8"] ;
1011 -> 1013 ;
1014 [label="AirTime <= -0.7\nsquared_error = 0.0\nsamples = 5\nvalue = -0.7"] ;
1004 -> 1014 ;
1015 [label="AirTime <= -0.8\nsquared_error = 0.0\nsamples = 4\nvalue = -0.7"] ;
1014 -> 1015 ;
1016 [label="squared_error = 0.0\nsamples = 2\nvalue = -0.7"] ;
1015 -> 1016 ;
1017 [label="squared_error = -0.0\nsamples = 2\nvalue = -0.7"] ;
1015 -> 1017 ;
1018 [label="squared_error = 0.0\nsamples = 1\nvalue = -0.7"] ;
1014 -> 1018 ;
1019 [label="CRSArrTime <= -1.9\nsquared_error = 0.0\nsamples = 5\nvalue = -0.8"] ;
1003 -> 1019 ;
1020 [label="squared_error = -0.0\nsamples = 1\nvalue = -0.9"] ;
1019 -> 1020 ;
1021 [label="Distance <= -0.7\nsquared_error = 0.0\nsamples = 4\nvalue = -0.8"] ;
1019 -> 1021 ;
1022 [label="UniqueCarrier_MQ <= 0.5\nsquared_error = 0.0\nsamples = 2\nvalue = -0.8"] ;
1021 -> 1022 ;
1023 [label="squared_error = 0.0\nsamples = 1\nvalue = -0.8"] ;
1022 -> 1023 ;
1024 [label="squared_error = 0.0\nsamples = 1\nvalue = -0.8"] ;
1022 -> 1024 ;
1025 [label="squared_error = 0.0\nsamples = 2\nvalue = -0.8"] ;
1021 -> 1025 ;
1026 [label="TaxiOut <= -0.2\nsquared_error = 0.0\nsamples = 2\nvalue = -1.0"] ;
1002 -> 1026 ;
1027 [label="squared_error = 0.0\nsamples = 1\nvalue = -1.0"] ;
1026 -> 1027 ;
1028 [label="squared_error = -0.0\nsamples = 1\nvalue = -0.9"] ;
1026 -> 1028 ;
1029 [label="CRSElapsedTime <= -0.7\nsquared_error = 0.0\nsamples = 27\nvalue = -0.7"] ;
1001 -> 1029 ;
1030 [label="ActualElapsedTime <= -0.7\nsquared_error = 0.0\nsamples = 7\nvalue = -0.6"] ;
1029 -> 1030 ;
1031 [label="AirTime <= -0.6\nsquared_error = 0.0\nsamples = 5\nvalue = -0.7"] ;
1030 -> 1031 ;
1032 [label="TaxiIn <= -0.4\nsquared_error = 0.0\nsamples = 4\nvalue = -0.7"] ;
1031 -> 1032 ;
1033 [label="Distance <= -0.7\nsquared_error = 0.0\nsamples = 2\nvalue = -0.7"] ;
1032 -> 1033 ;
1034 [label="squared_error = 0.0\nsamples = 1\nvalue = -0.7"] ;
1033 -> 1034 ;
1035 [label="squared_error = 0.0\nsamples = 1\nvalue = -0.7"] ;
1033 -> 1035 ;
1036 [label="squared_error = 0.0\nsamples = 2\nvalue = -0.7"] ;
1032 -> 1036 ;
1037 [label="squared_error = 0.0\nsamples = 1\nvalue = -0.6"] ;
1031 -> 1037 ;
1038 [label="DepDelay <= -0.7\nsquared_error = 0.0\nsamples = 2\nvalue = -0.6"] ;
1030 -> 1038 ;
1039 [label="squared_error = 0.0\nsamples = 1\nvalue = -0.6"] ;
1038 -> 1039 ;
1040 [label="squared_error = 0.0\nsamples = 1\nvalue = -0.6"] ;
1038 -> 1040 ;
1041 [label="UniqueCarrier_OH <= 0.5\nsquared_error = 0.0\nsamples = 20\nvalue = -0.7"] ;
1029 -> 1041 ;
1042 [label="Distance <= -0.6\nsquared_error = 0.0\nsamples = 18\nvalue = -0.7"] ;
1041 -> 1042 ;
1043 [label="ActualElapsedTime <= -0.7\nsquared_error = 0.0\nsamples = 11\nvalue = -0.7"] ;
1042 -> 1043 ;
1044 [label="CRSElapsedTime <= -0.7\nsquared_error = 0.0\nsamples = 9\nvalue = -0.7"] ;
1043 -> 1044 ;
1045 [label="ArrTime <= 0.6\nsquared_error = 0.0\nsamples = 3\nvalue = -0.7"] ;
1044 -> 1045 ;
1046 [label="UniqueCarrier_MQ <= 0.5\nsquared_error = 0.0\nsamples = 2\nvalue = -0.7"] ;
1045 -> 1046 ;
1047 [label="squared_error = 0.0\nsamples = 1\nvalue = -0.7"] ;
1046 -> 1047 ;
1048 [label="squared_error = 0.0\nsamples = 1\nvalue = -0.7"] ;
1046 -> 1048 ;
1049 [label="squared_error = -0.0\nsamples = 1\nvalue = -0.7"] ;
1045 -> 1049 ;
1050 [label="Distance <= -0.6\nsquared_error = 0.0\nsamples = 6\nvalue = -0.8"] ;
1044 -> 1050 ;
1051 [label="DayOfWeek <= 4.0\nsquared_error = 0.0\nsamples = 4\nvalue = -0.8"] ;
1050 -> 1051 ;
1052 [label="squared_error = 0.0\nsamples = 2\nvalue = -0.8"] ;
1051 -> 1052 ;
1053 [label="ActualElapsedTime <= -0.7\nsquared_error = 0.0\nsamples = 2\nvalue = -0.8"] ;
1051 -> 1053 ;
1054 [label="squared_error = 0.0\nsamples = 1\nvalue = -0.7"] ;
1053 -> 1054 ;
1055 [label="squared_error = -0.0\nsamples = 1\nvalue = -0.8"] ;
1053 -> 1055 ;
1056 [label="squared_error = -0.0\nsamples = 2\nvalue = -0.7"] ;
1050 -> 1056 ;
1057 [label="Distance <= -0.6\nsquared_error = 0.0\nsamples = 2\nvalue = -0.7"] ;
1043 -> 1057 ;
1058 [label="squared_error = 0.0\nsamples = 1\nvalue = -0.7"] ;
1057 -> 1058 ;
1059 [label="squared_error = -0.0\nsamples = 1\nvalue = -0.6"] ;
1057 -> 1059 ;
1060 [label="DayOfWeek <= 3.0\nsquared_error = 0.0\nsamples = 7\nvalue = -0.8"] ;
1042 -> 1060 ;
1061 [label="CRSArrTime <= -0.1\nsquared_error = 0.0\nsamples = 3\nvalue = -0.8"] ;
1060 -> 1061 ;
1062 [label="squared_error = 0.0\nsamples = 1\nvalue = -0.8"] ;
1061 -> 1062 ;
1063 [label="squared_error = 0.0\nsamples = 2\nvalue = -0.7"] ;
1061 -> 1063 ;
1064 [label="UniqueCarrier_YV <= 0.5\nsquared_error = 0.0\nsamples = 4\nvalue = -0.8"] ;
1060 -> 1064 ;
1065 [label="DepDelay <= -0.7\nsquared_error = 0.0\nsamples = 3\nvalue = -0.8"] ;
1064 -> 1065 ;
1066 [label="squared_error = -0.0\nsamples = 2\nvalue = -0.8"] ;
1065 -> 1066 ;
1067 [label="squared_error = 0.0\nsamples = 1\nvalue = -0.8"] ;
1065 -> 1067 ;
1068 [label="squared_error = 0.0\nsamples = 1\nvalue = -0.8"] ;
1064 -> 1068 ;
1069 [label="CRSElapsedTime <= -0.7\nsquared_error = 0.0\nsamples = 2\nvalue = -0.7"] ;
1041 -> 1069 ;
1070 [label="squared_error = 0.0\nsamples = 1\nvalue = -0.6"] ;
1069 -> 1070 ;
1071 [label="squared_error = -0.0\nsamples = 1\nvalue = -0.7"] ;
1069 -> 1071 ;
1072 [label="AirTime <= -0.4\nsquared_error = 0.0\nsamples = 32\nvalue = -0.6"] ;
976 -> 1072 ;
1073 [label="ArrTime <= -1.2\nsquared_error = 0.0\nsamples = 28\nvalue = -0.6"] ;
1072 -> 1073 ;
1074 [label="UniqueCarrier_US <= 0.5\nsquared_error = 0.0\nsamples = 5\nvalue = -0.7"] ;
1073 -> 1074 ;
1075 [label="TaxiOut <= -0.1\nsquared_error = 0.0\nsamples = 4\nvalue = -0.7"] ;
1074 -> 1075 ;
1076 [label="Distance <= -0.5\nsquared_error = 0.0\nsamples = 3\nvalue = -0.7"] ;
1075 -> 1076 ;
1077 [label="squared_error = 0.0\nsamples = 1\nvalue = -0.7"] ;
1076 -> 1077 ;
1078 [label="squared_error = 0.0\nsamples = 2\nvalue = -0.7"] ;
1076 -> 1078 ;
1079 [label="squared_error = 0.0\nsamples = 1\nvalue = -0.6"] ;
1075 -> 1079 ;
1080 [label="squared_error = -0.0\nsamples = 1\nvalue = -0.8"] ;
1074 -> 1080 ;
1081 [label="Distance <= -0.6\nsquared_error = 0.0\nsamples = 23\nvalue = -0.6"] ;
1073 -> 1081 ;
1082 [label="Distance <= -0.7\nsquared_error = 0.0\nsamples = 6\nvalue = -0.6"] ;
1081 -> 1082 ;
1083 [label="squared_error = 0.0\nsamples = 1\nvalue = -0.5"] ;
1082 -> 1083 ;
1084 [label="ArrTime <= -0.5\nsquared_error = 0.0\nsamples = 5\nvalue = -0.6"] ;
1082 -> 1084 ;
1085 [label="CRSArrTime <= -1.2\nsquared_error = 0.0\nsamples = 3\nvalue = -0.6"] ;
1084 -> 1085 ;
1086 [label="squared_error = 0.0\nsamples = 1\nvalue = -0.6"] ;
1085 -> 1086 ;
1087 [label="squared_error = -0.0\nsamples = 2\nvalue = -0.6"] ;
1085 -> 1087 ;
1088 [label="DepTime <= -0.0\nsquared_error = 0.0\nsamples = 2\nvalue = -0.5"] ;
1084 -> 1088 ;
1089 [label="squared_error = 0.0\nsamples = 1\nvalue = -0.5"] ;
1088 -> 1089 ;
1090 [label="squared_error = 0.0\nsamples = 1\nvalue = -0.6"] ;
1088 -> 1090 ;
1091 [label="ActualElapsedTime <= -0.5\nsquared_error = 0.0\nsamples = 17\nvalue = -0.6"] ;
1081 -> 1091 ;
1092 [label="CRSElapsedTime <= -0.6\nsquared_error = 0.0\nsamples = 12\nvalue = -0.7"] ;
1091 -> 1092 ;
1093 [label="AirTime <= -0.6\nsquared_error = 0.0\nsamples = 7\nvalue = -0.6"] ;
1092 -> 1093 ;
1094 [label="AirTime <= -0.6\nsquared_error = 0.0\nsamples = 6\nvalue = -0.7"] ;
1093 -> 1094 ;
1095 [label="ArrTime <= -0.1\nsquared_error = 0.0\nsamples = 3\nvalue = -0.6"] ;
1094 -> 1095 ;
1096 [label="squared_error = 0.0\nsamples = 1\nvalue = -0.6"] ;
1095 -> 1096 ;
1097 [label="squared_error = 0.0\nsamples = 2\nvalue = -0.6"] ;
1095 -> 1097 ;
1098 [label="Distance <= -0.6\nsquared_error = 0.0\nsamples = 3\nvalue = -0.7"] ;
1094 -> 1098 ;
1099 [label="squared_error = 0.0\nsamples = 1\nvalue = -0.6"] ;
1098 -> 1099 ;
1100 [label="squared_error = 0.0\nsamples = 2\nvalue = -0.7"] ;
1098 -> 1100 ;
1101 [label="squared_error = 0.0\nsamples = 1\nvalue = -0.6"] ;
1093 -> 1101 ;
1102 [label="UniqueCarrier_MQ <= 0.5\nsquared_error = 0.0\nsamples = 5\nvalue = -0.7"] ;
1092 -> 1102 ;
1103 [label="DepTime <= -0.2\nsquared_error = 0.0\nsamples = 3\nvalue = -0.7"] ;
1102 -> 1103 ;
1104 [label="squared_error = 0.0\nsamples = 1\nvalue = -0.7"] ;
1103 -> 1104 ;
1105 [label="squared_error = 0.0\nsamples = 2\nvalue = -0.7"] ;
1103 -> 1105 ;
1106 [label="DepDelay <= -0.7\nsquared_error = 0.0\nsamples = 2\nvalue = -0.7"] ;
1102 -> 1106 ;
1107 [label="squared_error = 0.0\nsamples = 1\nvalue = -0.8"] ;
1106 -> 1107 ;
1108 [label="squared_error = 0.0\nsamples = 1\nvalue = -0.7"] ;
1106 -> 1108 ;
1109 [label="Distance <= -0.4\nsquared_error = 0.0\nsamples = 5\nvalue = -0.6"] ;
1091 -> 1109 ;
1110 [label="AirTime <= -0.5\nsquared_error = 0.0\nsamples = 3\nvalue = -0.6"] ;
1109 -> 1110 ;
1111 [label="squared_error = 0.0\nsamples = 1\nvalue = -0.6"] ;
1110 -> 1111 ;
1112 [label="squared_error = 0.0\nsamples = 2\nvalue = -0.6"] ;
1110 -> 1112 ;
1113 [label="squared_error = -0.0\nsamples = 2\nvalue = -0.6"] ;
1109 -> 1113 ;
1114 [label="TaxiIn <= -0.5\nsquared_error = 0.0\nsamples = 4\nvalue = -0.4"] ;
1072 -> 1114 ;
1115 [label="ActualElapsedTime <= -0.5\nsquared_error = 0.0\nsamples = 3\nvalue = -0.5"] ;
1114 -> 1115 ;
1116 [label="squared_error = 0.0\nsamples = 1\nvalue = -0.5"] ;
1115 -> 1116 ;
1117 [label="UniqueCarrier_AS <= 0.5\nsquared_error = 0.0\nsamples = 2\nvalue = -0.5"] ;
1115 -> 1117 ;
1118 [label="squared_error = 0.0\nsamples = 1\nvalue = -0.4"] ;
1117 -> 1118 ;
1119 [label="squared_error = -0.0\nsamples = 1\nvalue = -0.5"] ;
1117 -> 1119 ;
1120 [label="squared_error = -0.0\nsamples = 1\nvalue = -0.3"] ;
1114 -> 1120 ;
1121 [label="ActualElapsedTime <= -0.5\nsquared_error = 0.0\nsamples = 225\nvalue = -0.7"] ;
975 -> 1121 ;
1122 [label="CRSElapsedTime <= -0.4\nsquared_error = 0.0\nsamples = 39\nvalue = -0.9"] ;
1121 -> 1122 ;
1123 [label="AirTime <= -0.6\nsquared_error = 0.0\nsamples = 30\nvalue = -0.8"] ;
1122 -> 1123 ;
1124 [label="DepDelay <= -0.7\nsquared_error = 0.0\nsamples = 3\nvalue = -1.0"] ;
1123 -> 1124 ;
1125 [label="squared_error = 0.0\nsamples = 1\nvalue = -1.1"] ;
1124 -> 1125 ;
1126 [label="DepDelay <= -0.7\nsquared_error = 0.0\nsamples = 2\nvalue = -1.0"] ;
1124 -> 1126 ;
1127 [label="squared_error = 0.0\nsamples = 1\nvalue = -1.0"] ;
1126 -> 1127 ;
1128 [label="squared_error = -0.0\nsamples = 1\nvalue = -1.0"] ;
1126 -> 1128 ;
1129 [label="AirTime <= -0.5\nsquared_error = 0.0\nsamples = 27\nvalue = -0.8"] ;
1123 -> 1129 ;
1130 [label="UniqueCarrier_US <= 0.5\nsquared_error = 0.0\nsamples = 16\nvalue = -0.8"] ;
1129 -> 1130 ;
1131 [label="AirTime <= -0.6\nsquared_error = 0.0\nsamples = 14\nvalue = -0.8"] ;
1130 -> 1131 ;
1132 [label="AirTime <= -0.6\nsquared_error = 0.0\nsamples = 5\nvalue = -0.8"] ;
1131 -> 1132 ;
1133 [label="squared_error = 0.0\nsamples = 1\nvalue = -0.8"] ;
1132 -> 1133 ;
1134 [label="DayOfWeek <= 5.5\nsquared_error = 0.0\nsamples = 4\nvalue = -0.9"] ;
1132 -> 1134 ;
1135 [label="squared_error = -0.0\nsamples = 3\nvalue = -0.9"] ;
1134 -> 1135 ;
1136 [label="squared_error = -0.0\nsamples = 1\nvalue = -0.9"] ;
1134 -> 1136 ;
1137 [label="Distance <= -0.3\nsquared_error = 0.0\nsamples = 9\nvalue = -0.8"] ;
1131 -> 1137 ;
1138 [label="DepTime <= -0.7\nsquared_error = 0.0\nsamples = 8\nvalue = -0.8"] ;
1137 -> 1138 ;
1139 [label="DepTime <= -1.8\nsquared_error = 0.0\nsamples = 3\nvalue = -0.8"] ;
1138 -> 1139 ;
1140 [label="squared_error = 0.0\nsamples = 1\nvalue = -0.8"] ;
1139 -> 1140 ;
1141 [label="squared_error = -0.0\nsamples = 2\nvalue = -0.8"] ;
1139 -> 1141 ;
1142 [label="CRSArrTime <= -0.1\nsquared_error = 0.0\nsamples = 5\nvalue = -0.8"] ;
1138 -> 1142 ;
1143 [label="squared_error = 0.0\nsamples = 1\nvalue = -0.8"] ;
1142 -> 1143 ;
1144 [label="squared_error = -0.0\nsamples = 4\nvalue = -0.8"] ;
1142 -> 1144 ;
1145 [label="squared_error = 0.0\nsamples = 1\nvalue = -0.9"] ;
1137 -> 1145 ;
1146 [label="ArrTime <= -1.0\nsquared_error = 0.0\nsamples = 2\nvalue = -0.9"] ;
1130 -> 1146 ;
1147 [label="squared_error = 0.0\nsamples = 1\nvalue = -0.9"] ;
1146 -> 1147 ;
1148 [label="squared_error = 0.0\nsamples = 1\nvalue = -1.0"] ;
1146 -> 1148 ;
1149 [label="UniqueCarrier_WN <= 0.5\nsquared_error = 0.0\nsamples = 11\nvalue = -0.8"] ;
1129 -> 1149 ;
1150 [label="UniqueCarrier_DL <= 0.5\nsquared_error = 0.0\nsamples = 8\nvalue = -0.7"] ;
1149 -> 1150 ;
1151 [label="CRSArrTime <= -0.7\nsquared_error = 0.0\nsamples = 7\nvalue = -0.7"] ;
1150 -> 1151 ;
1152 [label="squared_error = -0.0\nsamples = 3\nvalue = -0.8"] ;
1151 -> 1152 ;
1153 [label="AirTime <= -0.4\nsquared_error = 0.0\nsamples = 4\nvalue = -0.7"] ;
1151 -> 1153 ;
1154 [label="squared_error = 0.0\nsamples = 2\nvalue = -0.7"] ;
